{"biases": [[[-9.64250637734759], [-2.4112084874118223], [-3.315942084812917], [-0.23035974785991004], [-7.096375729948658], [-6.869933506211074], [3.4498155593892674], [-14.184717675251411], [-11.095246829215009], [-7.130233160712838], [-2.4690024981470478], [-7.602770745361682], [1.5149083105923622], [-0.7154988196468893], [-10.100126295384232], [-0.2781830631154924], [-4.068477548245208], [-14.130737091374854], [-2.9124478278429073], [-2.180796786008847], [-16.7820438883351], [-5.824914435093249], [-1.5798904220632553], [1.9556841631676358], [-5.277370932060744], [-1.4253819508260166], [-12.24770489228233], [-4.4375120471881715], [-7.089021941732054], [-3.99324850537308]], [[-6.107142239559239], [-5.997121464225447], [-8.10819905717092], [-2.018877730259834], [-9.01298202859074], [-2.4098074173701263], [-6.22473851907615], [-0.44489613658977173], [-1.4888823885539615], [-2.830035579334928]]], "sizes": [784, 30, 10], "cost": "CrossEntropyCost", "weights": [[[-0.2312024393700798, 0.6056554673460669, -2.4857695297336737, -0.540276307990685, 0.04437885575049466, -0.5743047506397324, -0.6055560229370639, -0.3139124210146124, -1.5100585356094056, -0.11900258885837407, 0.23574942253451317, 1.6254597236409078, 0.32600756562750577, 0.01972912760437249, 1.758445483461747, 0.9065394637222267, 1.160993985692127, 1.2725938383176272, 0.7033462485228994, 0.09798941138071718, -1.1441723920411033, 0.3008577226023236, -1.0682464912783576, -0.66559755367927, 0.7437889228544012, 0.7282747405174618, -0.8163951092457918, -0.9611569241422246, -1.4595358031125591, -1.7856609318216434, 0.31453610848633184, -0.08481888190867047, 1.253145166284933, 0.7401161062487055, 1.2528044708563872, -1.2694431390635859, -0.052849111730460294, 1.400434624953875, 0.4449545933524391, 0.008231252999844962, -0.38044847103616825, 0.5702769524734134, 1.7997329532361777, -0.5851264512755454, 1.7571472003697826, 0.40467807157652963, -0.36567080675110675, -0.5610293918878235, 1.926513267033015, 1.5686377824732027, 1.4833982917152386, 0.8268158592942129, 0.42910781657002256, 2.1410564949561564, -0.10012347589036957, -0.7098946314262984, 0.050788705994405735, -0.014679559162901716, 0.07717930258636738, 2.1668847873048267, 0.7919743447601248, -1.568683787613561, 0.016297041608148377, 0.7973950080095298, -0.09901236151540055, -0.22172593303900348, 0.5452524805767168, 0.7250538873346589, 0.6534383502580033, 1.374556911883663, 1.0969787117470617, 0.016038597648337007, 1.1037916951265756, -0.11933945646745742, 0.5929426578693735, 0.11356519293291294, -1.1211323085834792, 0.3646677593373362, 0.591941722551682, 0.2697618236877126, -0.43491049084851424, -0.17371676492324586, -0.34305292179591584, -1.6662797178560913, 0.11439753521502485, -0.15405729826344847, -0.34243900604793415, -1.2020830976629882, -1.5594699132394292, -0.2620660490219992, 0.20360128662183424, -0.3477903426230124, -0.3784418634391286, 0.6218555735824847, -0.96212245302378, -1.463816855021186, -2.70751771265587, -3.4160363798360476, -3.098293772492472, -1.614702524281605, -1.9566063391005464, 0.9589494886102449, -1.0900626703744314, 0.6618306421533685, -0.9248002160526332, -1.618438791656351, -0.0484308705325646, -1.131762490522885, -0.36952390808598096, -0.7695902176974612, -0.11683690918409188, -0.2372444736984054, -1.1540604135180963, -0.9879305412289573, -2.3009997520134786, 0.7630400298303808, 1.0315789684501488, 0.4794690521473604, -0.9596514112782738, -1.265132536053808, -0.027114994401583443, -2.5309195678986476, -2.986181204607751, -2.316325947990824, -1.7867769410227017, -3.573364557311661, -1.9331628189719645, -0.9320165356067476, 3.856704651976548, -0.29650683294561503, 1.1852832786781435, -1.1844775745725937, 1.7673035127081012, -3.450090315740242, -2.373680720169113, 0.3952752738151641, 0.2732007524606098, -2.238086100762383, 0.15580571609103702, -0.6405852260248897, -0.11579725616853291, -0.46238037545197674, 0.1817210951243816, -0.9261478667259752, 0.4204319411044589, -0.8709705832927892, 0.12144623286230793, -1.785189417604436, -0.009654094286898644, -0.3886297585903064, -3.8145538933993897, -1.6976390295863255, -2.805198613977824, -3.07441187917991, 0.9672028689360963, 1.6435306368566815, -0.2946549837115645, -0.1650951224877346, -2.355886386986705, -0.9829790347021592, -0.6253142391534724, -1.4345715534598396, -1.1641974197441196, -1.5145990806402512, 2.042327350706107, 0.3956562356804993, 0.3312985196821078, -1.2658520368542083, -0.15521282798485206, 0.6012650376524671, 2.4609335763456857, -0.5371080127068872, -1.3037673410773705, 1.760510243949789, -1.1063208447991335, -1.6302850299092322, 0.2732240879689813, -1.2427660708489583, -4.319840843869388, -4.66372575925159, -4.120502780523437, -3.273700543260705, 0.8354054710735995, -4.141632054913454, -1.2673842963819857, 3.136705464615915, 0.951828650512395, -1.9088394929180186, 0.2704368186596302, 0.22699673497005035, -2.773201154721406, -1.5857789930672979, -0.7330484837142067, -2.436714614797285, -0.0647979567743401, 0.5844916959042837, 1.0670971183036224, 0.7635287406832721, -0.6933020501461602, 0.9952116582935165, -1.835666535879075, 1.2806292677050595, -0.8007324513379775, -2.156014456521038, -1.3592761602259016, -1.2648717134780936, -4.191079545591329, -1.7168254147806523, -3.734788558103061, -3.7412499334023472, -0.9322553724050361, -1.4914661859874385, 0.8513449403982315, 1.211738109414877, 0.7815786407524109, -0.922121657268984, 0.6621401577243442, -0.8306820367341731, -1.6653569253514833, 0.5493072424459127, -0.7363357068841312, -0.4544987498792509, 0.4568765873686368, -1.1082201402146565, -0.0684246104161312, 0.10912624008100374, -0.7716826724555272, -2.5065976363578004, -0.005263429310097634, -0.4562964556845475, 0.7708613276398694, -0.9689591496801784, -2.0266027625329737, -2.1548340152550685, -2.0863080301489716, -3.641579645096702, -3.7481355667070058, -2.679364485560045, 0.7076205999018383, -0.690059718129653, 1.3079971502441243, 2.119628944908655, -2.272961285155196, -0.003892259580879818, -1.1457870137074049, -2.1020841776946018, -1.5863470773959802, -1.4090316467842363, -1.2844323433339326, 0.5916965625943738, 0.43157501992570185, -0.8450354361668472, 0.1680194295704743, -0.35735892259898, -0.023125143014588404, 0.5821915492304041, -0.3744495317767306, 0.6506008353858518, -3.2049965124671798, 0.13788921338129967, -0.9815627903338646, -3.206442945103863, -3.0199964884169903, -4.173735276136897, -5.489512331734129, 0.5751171095165653, 1.9862666794073494, 3.6004011038283417, 3.4881902376058225, 0.8768849220654866, -3.337935585379372, -2.631936285230212, -4.436684288692643, -0.7927584368134136, -1.628961232801449, -0.4831756421503093, -0.05846906828420824, 1.2064287787743262, -1.2764944475098052, 0.17220888213669444, -1.8361193442613364, -0.021754602515863357, 0.5078228981343954, -1.1715357355405744, -2.137644412004331, -1.2399083533430386, -1.1004932756329275, -0.29021730633006004, -2.153959101289169, -2.3583884500886048, -3.3510603649149995, -3.0188151576740636, -4.246467931714964, 0.8939503195938122, 3.01125136732614, 4.1837785300531465, 1.0186621132500286, -1.5731481064333364, -1.5930986033303836, -1.117163137272021, -2.45827395065138, -3.332356653072368, -1.1243998762988285, -0.9707350645651854, 1.1701857966252993, -1.0838062993947337, 0.47731580760308384, 0.4504926569586761, -0.10187895577089853, -0.028066500858829477, 0.053174801251091516, 0.2288194471181097, 0.18593266529867683, -0.3989281654933417, -1.4281651590190285, -1.5601802026422618, -2.343018394269312, -1.8341847397339044, -4.835116075510641, -3.753295875552333, -2.876770152536965, -0.21800582916125805, 2.3961460244540205, 1.7040794313801677, -2.0045722461563398, -1.5519163307606407, -0.9327397128955432, -0.9853517075908733, -2.4492761692461897, -1.9318391791711769, 0.18454967034278402, -2.6656441600533047, 2.427554382898505, -1.413472973649856, 0.6310289363394725, 0.5585288198198649, -1.2897125387851485, -0.4542600153760844, -0.8958296463336832, -1.5222835344095649, 1.28401961448582, -0.7677236742131555, 0.5264552228786985, -2.2349250728454217, -2.9337165848167346, -0.9400932771945583, -4.146537443912555, -4.03600781690805, -0.5250151087012106, 2.8789549714950264, 3.737394298818428, -1.5788001790719024, 0.025262658078331224, -1.343396441466427, -4.470275002451551, -3.858681556624921, -2.598877995494157, 0.06686996268541026, 2.075310269902277, -1.164490401316401, -0.2930838269707731, 0.708948585541023, 0.1068270661667133, -0.5293623074141428, 0.19337226097311447, 0.9366958243602759, 0.5569506124971318, 0.3395003982360801, 0.8735118871869959, 1.3862946439275687, -1.2227712204187562, -1.268848846071692, 0.5716190236614032, -1.96229606360447, -4.338914790155805, -5.007580136795349, 0.13943096873016672, 2.558101841302155, -0.1534033992986946, -2.647560218792548, 0.4487564857756395, 0.19240590380997777, -2.1823167183006453, -0.7556607960691513, -3.082885966139708, -1.554000373397186, -0.3459364178619463, -0.7454403288583484, -1.484469445985276, 1.811799072208814, 1.187742736483226, -0.12518972946857473, 0.40034032490251004, 1.0076235526251995, -0.4810926426918495, 0.4758944787327248, -0.629380493878476, -0.4368850030091388, -1.2522202180513267, -1.9744331025962831, -0.8122075010161217, -2.2876392159162653, -4.711571243069714, -2.3846892991951822, 0.7283442257465957, -0.7844380298420903, -1.305689625450625, -4.720657270748399, 0.9745430652542958, -2.1147386042763663, -2.720283441571775, -1.1484379785824663, -1.0694687387128325, 0.20771368366120493, 0.12522066230707254, -2.006761537777828, -1.6004386046589427, -0.554487968741267, -1.1083488562253148, -2.864367768010668, -1.5478054195897353, 0.5636603267760283, -1.0054810358555346, 1.718447312861869, -1.1600841810811489, -1.5022330380178393, -1.5279365760313386, -1.0660823997120454, 0.3088710972356347, -1.11919309754858, -0.9866895120193604, 1.0866071628331568, 0.8147884294935627, -0.43487103431449337, -2.1685431438526517, -1.9198243230575684, 2.684060935767189, -3.907854897742946, -3.7973041221696007, -3.574910854766479, -1.067730978341753, 0.6811916375231706, -2.500636583125878, -0.4496920476889402, -0.4668069178078868, 0.5739935471984062, 0.6480346083298298, 1.1796097787367934, 0.09641003793664688, 0.07088422917495343, -1.5085575101919015, -0.2760821514017476, 0.016288342739237665, -1.8614941044237063, -0.017147458631715295, -0.04022880040208346, -1.3098207575225982, -2.085042182390108, -1.1372187912227987, 1.3190985843299332, -1.4120218807593972, -0.8146837874406349, -1.7817189920529286, -1.0933096981732324, 0.35787428824890494, -3.535888792315834, -2.096814998717251, -0.9807309134755388, 0.2641183176206405, 0.7858890405565839, 0.9169671193511386, -2.187101674677245, -1.8009608675811755, 1.6211610728913668, 1.3011844260091916, 1.475056323699072, -1.045790868576635, -0.3688082727662141, -0.6651721118085805, 0.5484134995350255, -2.146272429014379, 0.19355479018277577, 0.2752409226829708, -1.4311414399626594, -1.1426872268495523, -1.6323287870799081, -0.20506476008147095, -1.1074676354556827, -1.6851452007793075, 0.2574809491101567, -1.9736717844137808, 0.002957259565282944, -2.1547200836305818, -3.51920118702053, -2.6162610903720918, -0.4969468772537617, -0.5789315059677834, 1.1804955860795052, 0.20144406014733604, 0.6548731670621598, -0.1459237398626601, 0.6673268681079975, 0.48706164784872585, 0.35653712055758735, -0.9334088862714587, -0.23617633849687766, 0.5190212920194074, -0.31796168613528397, 0.35965646255714545, -1.2644560034611978, -0.6409340533840243, -2.1619583370805517, -1.8914578738611108, -1.9417806261837502, -0.7822332250731958, -3.1134903371527036, -0.07521758776485052, 2.9859101168921938, -1.5116865107699196, -0.051663998720898226, -3.7314156697762653, -3.3726775716579604, -3.4496050906886246, -0.24234300949105422, -1.1662767713898532, -1.3998637027388172, -0.5012466967186531, -0.3174549265703472, 0.08170136117467547, 1.0026074139357584, 0.26089597275843174, -0.9933619936091315, 0.08258083863104826, 0.6858151884498037, -0.8685545970942727, 0.8951298935711851, -0.9142782647864012, -1.8034883838110003, -2.1588931344781477, -2.0960327889711565, -2.7600512131620722, -1.1401701060917722, -3.7593303823061395, -0.8419206373799843, -0.06176661191711823, 2.052905879153911, -0.35699425429491266, -1.0207156843774883, -1.7427697137401823, -2.1523515837600145, -2.259753546530405, -1.6513312542314924, -1.349581099875137, -1.962130168542322, -2.07501569463272, -0.2122838974998446, -0.3159914926528167, -0.4210121251754392, -0.9302895749095695, 2.321352316766438, 0.20691336210514477, 1.5149428154233178, -1.5276991877335915, 0.4041287416552834, -2.362665091732029, -2.705619937709901, -2.9022555677627664, -4.129461402097623, -3.512414758801376, -2.5842323342787576, -3.0901775481443905, -0.989304788056829, -0.8120602025635569, -0.790075167133267, -3.063172410860436, -4.057236399191319, -3.4971537430228934, -1.8945592735209924, -3.0101907263260115, -1.8935774834633472, -1.987425466262657, -0.18269288215671925, 1.3515800753258693, 0.5425783903229899, 1.1926872997545888, -0.12791699399742157, 1.253497046442508, 0.17465843761499342, 1.2078070496532975, -1.789760940967002, -0.06632827454064844, -1.6700524154557148, -1.6167678543681694, -2.239201146374894, -1.9452251257909552, -5.833619114160363, -1.479249450301823, -0.8361462208608248, -1.42015045570462, -3.1827113630108164, -2.8513023875514745, -1.5082844023707995, -1.9498560058150607, -0.6217129224940587, -1.258632065852738, -1.628725301700454, -2.856150294915106, -2.8303999987050403, -1.2659965795910684, 0.7243208227895479, -0.17306393993893596, -3.7099650665237114, 0.5454150399633748, -0.32354692211164876, 0.06785819752364886, 1.9272198479159606, -0.22962898152187708, -0.5804073377260273, -1.2140087768631187, 1.0109629985362651, -0.17540538697674843, -2.084307703483929, -0.04267878482881241, -1.3427740925118385, -0.4095657551960299, 1.9642170646076964, -1.1943380350326338, -3.3005311750249064, 1.4146933067108824, -1.6781145680023708, -1.5667465143788504, -0.79504569482896, 0.0715704518603243, -2.1015243949663396, -0.5620787107865971, 0.15090351597131568, -0.956848500888986, 1.4021021670972051, -0.9073194294105597, 0.9110730598354353, -0.40401415405235, -1.0408143506649303, 0.31219349583727735, 0.019939196553810264, 0.3721917408201967, -1.6812239759501941, 1.9506977948473223, -1.263781254858095, 0.307385258137135, -0.6290790085930057, -2.8198018038193484, -2.686577195829592, 0.6865292179362078, -0.07046528447658776, 0.03513160432954647, -1.5253041621321561, -0.08479810903097713, -1.1603140372108285, -0.7512255289848733, 2.13456782303585, -0.7778602764893177, -0.2117230986132181, -0.7992355124559042, -1.9560033477319232, -0.1079813592212086, 0.4151321514279914, -1.63582373403043, 0.7566704121869586, 0.18250074089286084, -1.2437794551405004, -0.5488210529457203, -1.2775662170584339, 0.10200208936653832, 1.3817808628831791, -0.94983830655865, -0.3255991419504049, -0.5498750763639649, -0.2537342240191424, -0.24560210018808604, -1.1754535281203582, 1.2735856525467173, -0.3274718054666915, -1.1762879003815927, -1.2459504515020023, -0.9267481544530494, -2.7860618256478205, -1.190267239018498, 0.8638132220139901, -0.2208271457541503, -0.5772477083156434, -0.8439554918128969, 0.12655381170372815, 0.9640978073094257, 0.9059734377519689, 0.5590550153875748, -0.45148674297366787, 0.3977783846774881, 0.16081964756121991, 0.5361097181512854, 0.15670103296289398, 1.0318807800745795, 0.43586379977050144, 0.7731802183193001, 0.9844244828567796, -1.2989607843906008, 1.4945912899188438, -0.09807386928462282, 0.22484220179620737, -0.5665051417215657, -0.577560933320522, -0.9987223210106673, -1.083364979750465, -2.279263757397616, -0.48940517688268603, -2.2906477844601474, -0.028296521070547618, -1.173550255438376, 0.1575724049044761, 0.2862985943207506, 1.1717342939465751, -0.10650667028666358, 0.41303854056556466, -0.8990045430498157, 0.3824216469400875, -0.025731573935216, 0.6617357751281386, 0.21369590267504973, -0.03867786683913239, 1.0034475598617378, 0.5837586271437585, 0.10332261258026343, 0.5619708539637723, -0.4298672832033264, -1.3318631112687016, 0.2862827748023247, 0.6938929783599473, -0.5908802535333958, 0.04886430587768458, -0.3696720890495557, -1.2392990340002745, -1.84259116215356, -1.971604377719493, 1.3186944305563928, 0.4664738409524906, 1.234763011107485, -0.5008508552465682, 0.7335582732907733, -0.33336998403783463, 0.6461074415973214, 0.0009525446790159849, 0.5925139347889143, -0.9176966932897335, -1.983495534182803, 0.34584595821792624, 1.1431629645520118, 0.010196772096578773, 0.014592552677445936, -0.5253221904957481, 0.8915242066366693, -0.35390058949067976, -1.310679942322085, -0.33949967063412173, 0.3865276426020091, 1.9559894959652466, -0.39427969888388115, -0.05448378523432103, 0.2496506732822309, 0.4750923703303266, -0.030079402092985395, -0.11389839575116542, -1.0898997742390757, 0.7027473666257925, 0.271383080347353, 0.6746079618139537, 0.10267845337430584, -0.9566012775853506, -1.122944676551227, -1.400277579785496, -0.050192080222494, -0.8750187556194552, 0.573972160940955, -0.407301950656063, -0.44549490334637326, -1.5021542986481924], [-1.0152441273004988, -1.4881031655432715, -1.9211710228312708, 1.0576543737370563, -1.1027481092126723, 1.93140638655583, -0.8411569863077255, 0.05373853110110557, -0.30807482447210605, -0.32630057504056587, -1.3796289697214272, -1.7018949633059617, 0.8875288407176034, 2.429155473614435, 0.9308036697808671, -0.22037217382207738, -0.5074898453081349, 0.880639811136715, 0.21549733151982678, -0.66098037190846, -1.463715074871795, -0.5406460373563822, 1.4133305858046632, -1.745218886363617, 1.1182765707850477, 1.2651284255834383, -0.5734429253373999, 0.03623149452483146, 0.38111571313065984, 1.5783600569334688, 0.509633506600291, -1.1413990420210598, 0.4390672612915075, -1.6862457887645326, -0.40166250568529677, -0.5677710133169779, 0.3783622677205036, -1.0076579278566122, -0.13026741188566954, -1.3097658117403168, -0.6883554839984883, -2.019688729785931, -0.9497418140746031, 1.5235131096868626, -0.3074076706683659, -0.45530741791886287, 1.5621392489700845, -0.18082928961188233, -1.3120162713542618, -1.6942378882726121, 0.6710521059602704, -2.446729225851958, 0.478473531438506, 0.8410414816373383, -0.849517124791018, -1.4502458941741827, 0.5854196979993526, -0.22094524015358186, -0.31677139036345997, -1.5542327462269117, 1.351556716012016, 1.115325690245834, -0.24605246096424274, -0.7925807961060726, 0.998405383587049, -0.07659647821451568, -0.3182391281764971, -0.5993944795515295, -0.7773750793260464, 0.3547598044173464, 0.1822720402127636, -0.3794602810213927, -0.2755812440912387, 0.983725908030483, -2.9014670074949773, 1.4097112001768837, 0.38499445134859916, -0.3084050354928002, -0.7339991574793958, 0.7716730680336034, 0.48519438996309794, -0.4601095915600583, -0.24592376219093973, -1.0031347025585888, 0.20714832457835788, 1.381918182545944, 0.4778644179954374, -0.22842700454085443, 0.7809281465103212, -0.45183395742412263, -0.0006262058388092292, -1.8309452237087327, 0.31814373080569697, 0.49490077429817375, 2.2333204430050895, -0.7378091999450794, 0.15906447331993032, -1.4160424290899052, -0.8579287097511148, 0.4865147000638516, 0.539327101676214, 0.5374124419704698, 0.7332855734044461, -1.185917847574286, -0.17250254117457198, 1.4414389227072875, 1.0098071839713239, -0.14392064538969593, 1.9096855895922762, -0.2619957698594701, -0.878113347010588, -1.3840250641300202, -0.14461738263108254, -1.170148962056087, 2.0552406767736033, -0.17460512062453293, 0.9487438964915597, -0.6790264747921242, -1.4882772898580539, 1.2343972730874826, -0.7691805294935091, -0.04842310825092796, -1.5628066987512725, 1.2072211018737349, -0.8184868834529266, 0.4948360440911115, 1.1223948419194392, 1.5579920886775256, 0.01864475408937937, -0.26432682060820845, 0.09060027890623758, -0.9902357372317138, -1.8666718196758536, 0.29098575256749803, 0.012827045332481805, -0.1848843717757241, 1.6804458829042788, -0.1244025148707743, 0.5240596858130064, -2.048383879651332, -0.8298285410660512, -0.512962997152879, -0.47713879403140397, -0.897755851675746, -1.1809324572176687, 1.8952409637742915, 0.9714445277211338, 1.8484878044385407, 0.5797233833613324, 0.0640955176293248, -0.001245392438733998, 0.45204562691984207, -0.04645391682322906, -0.9980820017795258, -0.3722917108637098, -0.2749642791853361, -1.4586392282664746, 0.6763988964652996, -0.9619051619009322, -0.616707056115307, -0.7051390811046663, -0.23164319165051742, -0.7093588719293911, 0.4058926200260387, -0.8628425842871047, 0.6608831117106322, 0.29270121741500266, -0.08283949178781164, -0.7569345321732683, -1.2496645608387549, -0.8060921687416222, 0.3951549525477257, -0.15844874492066663, 0.35943217096770125, 0.8585106514310064, -0.4792233980582301, 0.09598873229315985, 0.3715021051786119, -1.0114408922287783, 2.482118930600348, 0.3223728073989859, -1.5494912913865047, -0.0032611875018202954, -1.0145546327514854, 1.5487520670273276, -0.5479889002112625, 0.7746865068355845, -1.5497940659118987, 1.1755565934387004, -0.4323938344609291, 0.8643164350320918, 1.0242483099523345, 1.0132453581149783, 0.9307061976977812, -0.17823211359798716, 0.7365431472611839, 0.17183915197429642, -0.9935199265950311, -1.357854912205841, -0.2577083511166003, -0.5174627535451091, -0.6444915256395208, -0.18506411152876545, 1.9028197882088507, 1.2015644968096062, -1.9471511772836068, 0.8311571023700322, 2.412640317080461, 0.48780136911755195, 0.909045430924851, -0.39060596668394176, 0.4698236781926079, -0.340433420894686, -1.5792686177772013, -0.4679712844030277, -1.3061564303414357, -2.7089038342969394, -0.8428243168301986, -0.5187003016107928, 1.8709518279106767, -1.3535993274246005, 0.27304440188307527, 0.09376487691457311, 1.0035111936232088, 1.0007909920317077, -0.08900265225835069, 1.6336419307135512, -0.9935525990096472, 1.0256244199958287, -0.6948758113538692, 1.2547782892719057, -0.15115965781454316, 1.7929668013174047, -0.875081728394007, -2.8280535904004527, 1.9839749811609397, 0.21478607639020422, 0.9401760768128592, 0.4455168170024637, -0.9866295510977763, -1.2441013963903826, -0.7033356082371954, -0.2223940262880993, 1.838977494901277, 1.78444667262736, 0.06356274868989405, 0.2429673595542931, -1.5390255432235584, -0.7400054223906324, -1.3372773236160502, -0.033152111302350774, -0.5122053039899531, -0.06523066308281061, 0.954152114420984, 0.04639890334408881, 0.7130071237185004, 1.3140676715294881, 1.3092425942565347, -0.12534803644647613, -0.7810518586991664, 1.8307026573968272, -0.7919681211819637, 0.6582747086183751, -1.2676096412637428, 1.2656453651627722, -2.9459506863401135, -0.6550971356672234, -2.0080446426395864, 1.065681038966859, 0.00688477757699285, -0.530396566650325, -1.5805512469380651, -2.078652488018204, -1.2679086432248803, -0.10316865576316567, 2.1102448230542605, 1.410820820596622, -0.06008806114178505, -0.08573247234124458, -0.3255413827447174, 0.7219801148956855, 0.04597781457613549, 1.6916390967926305, -0.3481117993540472, -0.2892370582213151, -1.0169558788445743, 0.7099923443531028, -0.14333810883228365, 0.8969305172326478, 0.7754189902473315, 0.20712746691905137, 0.38854828355889337, -0.1068348312719813, -1.939638231104563, 0.5132782519002769, 1.7365208219753532, 1.0001623653115788, 1.1197718379806256, 0.32107047905055563, 0.40515474546078967, 0.10347719445129042, -2.1182107329911375, -0.7694810061168323, 1.142902926175202, -2.0756285841745172, 0.09919637443564823, 0.8479511632228164, 0.18102600019598253, 0.08814368835771076, 0.26511314911114814, 0.4448883284135541, -1.4112674193148234, 0.629323419614941, -0.7662669072758017, -0.4787784309167232, -2.199808878977116, -0.4845848178328761, -0.8446949308340118, -2.609076117519629, -0.5844610810890707, 0.6001665959322902, 0.1991036799960699, 1.7573160576623534, -0.6522616694351258, 0.2659011009018144, 1.320884133450381, -0.33559025481628457, -1.5723983958768966, 1.651148877215722, -0.09237689952843879, -0.49176954334836326, -0.0685010708653482, -1.3264299023605841, -0.1847111106108503, 1.2146535901770805, 1.5408183420955033, 0.08409281920362922, -0.7117068484991227, 0.5060428145009218, 1.1269750636027034, 0.8731961460815423, -0.24034195930204844, 0.7506621403236463, 0.6971178957703624, -0.6483258276472993, 1.8593173786736248, -0.9777741538402845, 3.4436452943876548, 0.4558984919174196, -0.4892555552060095, -1.6397691098463225, -2.7596164534186274, 0.30648925474304994, -0.4926927237303593, -0.13002202232927745, -0.8082492153653693, -0.2774504405093437, -0.6927773333341438, -0.5474848557569023, 0.008585579404345262, 0.6906649149497456, -1.9747128428426888, 0.4528732369186319, 0.056696100759991354, -0.8049670561530903, 0.4043217815822981, 0.16179904875464055, -2.130003996839395, -0.3876789581277751, -0.7674162649108491, -0.23083044234195202, 0.40883676576146455, 0.954063107523879, -0.7401359596918512, 1.1031540261370054, -3.5564043919783845, 1.272233235076479, -1.2040473257244102, -2.5105711644983866, -1.2987440858005128, 0.9836034578258771, -0.6100019688969462, 0.39013561481507986, 0.6644326406004529, -1.0715306490497867, 0.764018124885331, -1.0116566231095665, 0.20788264602036008, 0.7908983926996025, 1.8155202880182588, -1.3840635387858207, -0.979983884765285, 0.954651739908097, -1.4878114863384468, -0.9246080411649522, 0.14256934813566968, 0.2845959134822616, 0.5718573545636422, -0.26980801009435224, 0.27450856097893994, 0.21324188294433913, 0.5830658426845189, 0.4205737264782141, -2.352821283012103, -1.5798273259319269, -0.2458897379614437, -1.370543553053107, -1.003392847795855, 1.2192140923643344, 1.0337933636274155, -1.6138294486257247, -0.3164456637510402, -0.8714943730659201, 1.124363139113503, -0.23191697720544602, -1.3017449701753279, -0.24774408682795132, -0.40860530701937414, -0.1836905094499005, 0.1262036880767213, -1.6338209901723395, 0.20605970200329227, -0.6897381237317827, -1.2930796906450999, -0.9583638190379147, 0.04621067867829855, -1.285991022327899, 0.9699736303264346, -0.5594227074652072, -0.24855085920778355, -1.0551415880682082, 0.20752204791687406, -1.0751712085359797, -0.8633327689393522, 1.34351825298638, 2.076167803255214, 0.08024867374319843, -0.08177518337544341, -1.428001330611507, -0.8393334390365389, -2.2604442377315768, -0.8213074007109924, -0.2694012147329284, -1.3221117039214154, 0.19846702522063783, 0.9091698491428298, -0.02916892200300781, -1.2465532357480393, -0.762004130247105, 0.10667811041430154, 1.1141298867003666, -2.2075675666030965, -1.1292736615067764, 0.9486679375410682, 0.5060889240509825, -0.6376003820760895, -0.7591274006609359, 2.6139909686806004, 0.3467894648999521, 1.1304507496532377, 0.9423043037399289, 4.250312275089399, 0.7797907144217214, 1.2951372376854624, -1.0145134559223157, -2.1125753158469056, 0.1284177392256312, 1.6063385353617248, -3.955880370506742, 0.25217872922543794, 2.086628127650594, 0.7121753323121511, 0.4213817472405571, -0.2855666788092073, -0.4605406814236906, -0.6248852987808385, 2.156535871823888, -1.2854558363473156, 0.9059926023632878, 2.781916742283875, -0.0918140998470145, -0.683175653594801, -1.6373887435269832, -1.9801578687270167, 1.2767429651939128, -1.9441076809350173, 1.3592307505797647, 1.1419600844655036, 1.6812493667743371, -0.36674070875230935, -0.6172052241543892, -0.6313084501896528, -1.8391806161900124, -0.8894718791405274, -0.2993290645372256, 2.3298502766840032, -1.070960581733725, -1.7994471923686086, -0.14592767556109748, 0.8186604793484237, 0.18092389440509282, 0.17452082912461853, 1.2544480771389661, -0.6152734217162614, -1.2630655875244985, -0.56286174390675, 0.5903034708323615, -0.8069244824747243, 0.13335439615527536, 0.567490464860627, 0.13172177105878585, 0.3445810257456878, -0.1027744185215592, -0.07803025862591878, 0.07120717381899033, 0.21934561746187628, -0.8504219682260956, -0.022668921257931282, -1.520311954148447, -2.945697669539875, -0.707045411426028, -1.2031145979946962, 0.8052305922756919, -0.3000568801964271, -0.4186182704432944, -0.7079375558075618, -3.277733728833543, -0.39761478796866995, -0.7412933158105546, -1.025431063884745, 2.2189538846763748, -0.5324169343817158, 2.0006804500573416, 0.7326175701651504, 0.7432067175296229, 1.0689560574382593, 0.9610543365919585, -0.006473481560021984, 0.8827608587158738, 1.5255979810973475, 1.713855941379884, -1.4695943474981215, -1.4908377472350192, -2.534023286487303, 1.8449323223416314, -1.7524118170434275, 0.35515737319006524, -0.7374835000542258, -0.39528692595745557, -1.737282932547026, -0.07324120247867259, 0.5612216093075492, 0.956959557205632, -0.06706207632447937, -0.5477969224548016, 1.288244112043799, 1.0718888871432224, 0.7101527826391892, 0.4793774870741099, -0.9842534327419816, 0.21834025510038538, -0.8343713794839867, -0.4705756841630283, -0.3252205083299031, 0.028146777718211943, 0.2798986683152902, 0.2746318751246679, -0.31774592249255706, 0.535575503404891, -0.0337986102168266, -1.559053208416739, -0.8422728683156637, -2.098027576743336, -0.7215464390788071, -2.4752227232446926, -1.9049596278690997, -1.1950603898278083, 1.2265285970330622, 1.8470213824568726, -0.36081113746407717, -1.5235453802544534, -0.835884003377794, -1.6178795821782974, -0.43748912605136303, -1.4669778897852073, 0.15143542352037365, 0.6315934691006404, 2.13091359612992, 0.8576885830604373, 0.7940666378103114, -0.06545221171144357, -2.055805161146673, 0.6004885752894386, -0.5201201272113027, -0.5368863643998568, -1.1130546606993519, 0.9166313027837837, -0.30023605682923094, -0.6722572618983719, -1.0776189535483798, -0.2887064856506081, 0.03644691260007061, -0.994026982290085, -2.2019697049709923, -2.741469626223712, -0.4778398882215321, 2.1045197418229376, -1.114068240202166, 1.162487023847107, 0.10156555427222175, 0.1526991683158923, -0.9278688531762475, -0.8828042520872876, 0.24567866364418553, 2.4345382419192183, -0.7102890194539307, 1.09988581071188, -3.445031590906087, 0.8426874006389353, 1.0851689089210224, -1.3721187411149443, 0.07090339624954727, -0.07387362311369802, -0.561149995203041, -2.062173181716101, -1.2130133937231735, 1.0387740901594789, -0.8482109484033568, 0.3545938679591904, -2.216004965092214, -1.7962179680682837, 0.028396486379773805, -0.21761620795907488, 0.3987839076381223, 0.7946950948422619, -2.501248583334148, -0.7886456299587112, 1.903028506805031, -0.08294260906854312, -0.9027903893944382, 0.388963930962502, 2.4496520915027897, -0.06207498736630966, 0.10840418466533931, 0.6612580394441032, 0.5164697095839123, 0.5976491715343097, 1.7945123874697615, 0.16181576275961382, 1.2129872154401484, -0.3864619151744786, -0.596859046934829, -1.081457940837787, 0.004850827005254575, 1.428205268448328, 0.6462001643832067, -1.319642409116674, -0.20418467503218227, 0.8586334030632338, 1.784300879176221, -0.6274610846563681, 1.6845472932124632, -0.2259131296024668, -1.3222077981690172, 1.6848394595052576, 0.6037740474352948, 1.1015876263478652, 1.3737233396027528, -0.8569999823018888, -0.8953387284567258, -0.464622986862155, 0.9315224099507511, 1.617155044143321, 0.156559992355873, 0.9427487880681817, 1.2450504363611161, -0.45017795224833396, 0.3076660607739428, -0.7593655260708198, 0.047363610815903505, -0.31402886226639726, 0.8507086427549856, -0.8886852713151069, 1.2958508559689712, -0.22484666496152644, 0.4546259846597253, 0.9051915346774705, 1.4871255486502895, 0.2727567434058192, 3.64515867858356, 0.6526745948090923, -0.5644643422155992, 0.9503064882348896, -0.768455547876954, -0.8607967004630427, -0.693014731264523, -1.2603731276073113, -0.6865465073312382, -0.4685470086207584, -0.8017873740245208, 1.5932167937439485, 0.18927229654775807, -0.5288515666439138, -0.6162883127677004, -0.8946049813656525, 0.7666604608411444, 1.2153388890288082, -0.38123680158365586, -0.4295389729709928, 0.7248513630276229, -0.024639068952406227, 0.22710849414666961, 1.2164550665641236, 0.28645490494422404, -1.3711097188122368, 0.954477354595988, 1.3543466217878635, 0.8008249542146975, 0.017101576192128223, 1.8305147742854018, 0.6402421762224935, -0.10587149116623056, -1.362097293827426, -0.571380989269583, 0.7017995582188675, 2.3534556616559708, -0.33076788429413073, -0.8232500550895572, 1.8872003832670206, 0.6519995411580892, -1.7115526453914098, -0.35225543988875196, -0.39688938096238585, 0.21083300373093233, 1.4346405407281884, 1.4626448732762742, 1.5686077279459005, 0.5586197526415567, 0.8577623944210232, -1.1278272982582638, -0.08237986437214338, 2.684574387689285, -0.5798054636299063, -0.884642533295116, -0.8517771506674908, 0.18534880776840318, -0.22765194206959624, -1.3396310310682131, -0.08865083115519956, 1.2978617722499777, -0.5004204722118166, 0.2585055662796004, 1.125923571074311, 2.3722425503833953, 0.19755286108952194, -0.46947184621832433, -1.11303200888518, -0.2838005036681967, 1.8276484748520516, -0.23796612847737258, -0.04858789320206209, 1.555526933151431, -0.713348225543158, -1.589228744083927, -0.6436078371684552, -0.6965208686368586, -0.5375191452333633, -1.7908771392984681, 0.2553608454746444, -0.3106881553271541, 0.10927696361442658, -0.09354241615525037, -1.6325606211045758, 1.1806389080860977, -0.8962034000159297, -0.39461976629459805, -0.11209646745397156, 1.2133007949649097, -0.5052789203105843, 1.0691484079994757, -0.3450026063847976, 0.2853558439815495, 0.141804964921148, 0.8662213722183747], [-0.047149374435215184, 0.2515071210778649, -0.9934315094115181, 1.4111757448434745, 1.1608221123708067, 1.4418040706245603, 1.8125619171243124, -0.30376468363819925, 1.586884499023344, 0.19548011009264357, 0.3314807815954332, -0.3942652896460642, -0.6112051357984246, -0.8752209691884475, -0.07355468688550235, -2.683393331698501, 0.6619209321047094, 2.2027882317310405, -0.09233922064979727, -1.012228515779091, -2.6388978572624553, -0.8008418716070614, 0.9776635377437045, -0.7824806366127521, 0.2617019346285033, -0.1410203632135845, -0.5160923166002139, 0.6103404326251459, 0.04683992170173438, -0.024110912691825335, 0.16346637401780986, 0.8384223553404908, 0.7720696815105648, 2.1395318617488632, -0.6690795003006387, -1.0527486830573356, 0.00902816723094092, 0.33292531863868674, 0.3769967754652294, 0.050566056300998384, 0.7185067839871498, -0.5408938559841909, -0.3064692357998017, -0.2850934944628959, 2.1675874424757313, -0.8659056399392044, -2.1489833247085013, -2.329100740905127, -0.02771281155757408, -1.0720503708604987, 0.16206146560233314, -0.4360858072728652, -0.9526556934679858, -1.361874125178796, -1.6631461300325152, -1.0645795662282866, -0.7621275180840281, 0.572989878119754, -0.6038932144261747, -0.5185216621371959, -0.921136519135907, 0.8911073774150202, -2.0085950697692323, 1.205370562378484, 0.5265928842472959, -0.2708332279547515, 0.3216337117941122, -0.29318264498104324, -0.08128086973584919, -1.9753900388420735, -0.2691997239933657, -0.9415133665808805, -0.07698242967738828, 0.48029230994531036, 0.28860038552223083, -0.5730583553115858, 1.1520469286501243, 0.5404700370280394, 0.11295541948342999, -0.33525460252516187, 0.6689800166859488, 0.026858441055569365, -1.6132237312606024, 0.29486435470893346, 0.8700602546387906, 0.14664440311207433, 0.39887161407302474, -1.6386490840253451, 0.5252986298725746, -0.3421387122129206, -1.4022840582535878, 0.06032007760701718, -0.9292413118032764, 0.9649668257943798, -1.4512031737630824, -0.8711621570102817, -1.611510557216422, -1.2802114878134865, 0.015584370264679808, -2.12529380500506, -0.9566203832300125, -0.08559065314458207, -1.6011290100457418, -2.185922771114037, 0.7015074102856694, -0.5616502770676276, -2.3694424976654256, -0.6434116711282074, -0.042054886519370276, 0.07157468735337986, -0.619822965795385, 0.9336664364030547, -0.8808679772801924, -3.3456713747225217, 0.6205381447915308, -1.0719524551618258, -0.9187868075634777, -0.912966465349027, -0.3795907481035518, -0.5896257324653897, -2.9614636689360547, -1.0225134691611528, -0.9980545508598786, -1.2267630426984386, -2.89157749482904, -2.8001615474616632, -2.421597992607291, -1.8701183204407072, -1.8020656354603213, -2.166534829732928, -2.037348657270745, -2.5023919116850575, -2.736339967796397, -0.006748516103207533, -0.1497592799884256, 3.219425047251401, 1.5898401795138424, 2.6625908760189123, -0.056364081575009176, 0.2343971002083698, -0.6714070070355194, 0.8298328965919247, -0.8307345339459326, -0.9784785142692345, 0.24243105722678068, 0.6669958254072723, -2.8100735494208497, -1.175449390112173, -1.3724617307543294, -2.986969604026317, -4.255088963119972, -2.339286271173475, -1.760655351671138, -1.2759860147124271, -1.7238502955344068, -1.291548144949713, -0.23695663551424376, -2.1735663950254462, -1.7452043888294058, -1.3522754367727479, 3.9286216628927253, 2.0877000473468943, 5.389107327754393, 3.354270279033292, 2.6348620384638135, 2.4065744111874494, 1.2202942398042682, 0.5242820496336106, -0.7884095147057133, 0.9344471524604574, -0.45601522963715335, 0.8052928257130624, 0.9155067894365861, -2.4120915307018462, -1.0119051066143665, -1.318473341187245, -2.8110969436763025, -1.9176107178956003, -2.6751910137497577, -3.300206356337384, -1.9406911984307886, 3.6164121969449257, 1.3892093190986567, -2.7050278853172456, -1.8000031458646106, -1.9345891942685123, -2.1538899908222136, 4.186666851294084, 5.332702275420401, 4.398662422638375, 6.263941689950509, 3.5991057895903844, 4.554782908458616, 0.7058500845865322, 1.2715955456308412, 2.4150999032276914, 0.37716569576592135, -0.8458858665862558, -1.2068680131358227, -0.17177977216465903, -1.5966672601446386, -0.7263070656081118, -1.7149957650096799, -0.7316604196193617, -1.0624227478092194, -2.2098928941183353, -1.9639214210423421, -0.00654348728285563, 0.9272148819688334, 0.1594554114738107, 0.009288538002175644, 3.620402453249511, 3.4289868211950987, 6.404750741825017, 6.568468796062737, 3.2008618538187266, 6.877473464897523, 3.8724496800186383, 5.951586758530512, 6.449844961996707, 3.0120169506266494, 2.815822855975217, 0.371099395519847, -0.8513017179014194, -1.2453646368704787, -1.3976698987027654, -1.565190241790376, -0.5418942680476913, 1.0886133738337116, -1.7724604059431606, -4.578226982609331, -1.2771710462393415, 0.15690974283440837, -2.4257785167377146, 0.16660637785431434, -0.5111375139239894, 2.474181842331195, 0.07591328987325432, 1.6598983811774783, 0.46257455666609076, 4.914503962141341, 5.792106182272406, 4.799550426199386, 8.425578203115967, 7.307513355926554, 5.276931743845065, 3.940244524199649, 4.080216014918515, 5.315609685949532, 3.1380321042430577, -0.8581565485583857, -1.2840613795044014, -0.21784050630695034, 2.3354015334614275, -0.4955502664696517, -0.11857956459245982, 0.44249984394210906, -0.9497911406146952, -2.0102625361480233, -2.5558210187158545, -0.2384770391217059, -0.6003563953043357, -1.1760095576936926, -0.3119562104894142, 1.0386464104795776, -0.1388564204580928, 0.14742781872350408, -1.6565292815431079, -2.695206895547122, -3.180621629822938, -0.6722382095877797, -0.8817481281241754, -2.4607625446104024, -2.520588699602322, -1.3670228808349025, -0.5807299599709016, 1.6856707470579047, 3.0693768185366737, 1.895483045754335, -0.07123705524325001, 0.2794180385007366, -0.4865940862345612, 0.20532465374706904, 0.009951897145710776, 0.9659792012790518, -0.5395658036916055, 0.6758879467395946, 0.8642700582040355, -0.8518496196368044, -0.6084951172054346, -0.2705342720019984, -0.5341037819160397, -0.8998264807033675, -1.4225096933355292, -3.629164667293987, -6.206686128014601, -7.104658629583622, -10.50327985927581, -9.012907327999775, -11.160827097331858, -9.424800846568685, -6.168921019175697, -7.059233877203784, -2.6544255165894373, 0.050846102220145316, -0.9307682899870098, 0.6129444232105938, 0.21320726383352306, -1.2054831336805178, -0.6003137411204122, 0.30059113962334505, 0.3371225375355099, 1.2089997671475716, 0.19876391065605975, 0.7953437866501777, -0.7885540898301596, -2.5445527538468933, -1.6435217913936009, -2.062973177052352, -0.3682364878530081, 1.0416183176808027, -0.24841238375242206, -0.8943769997060905, -1.927919960778138, -2.520159065417629, -4.7899374204238585, -8.988734785194671, -9.476893100863423, -8.500863997219097, -7.449170080918964, -6.8420017829882, -3.6540922090088497, -1.8035188802904687, -1.251630066550233, -0.7914765831816469, -1.3819754001392488, -0.4421918132961361, 0.4960918821179669, -0.2783057419809107, -0.1794177403906451, 0.7526151573397991, 0.14286172256432542, 0.24436925153294137, 1.9921513193016618, 0.9039575331519795, 0.32848327142893013, -1.5266701926309818, -2.3199577277898125, -1.3834354671818907, 2.2115507533672067, 0.3878993226417274, -0.1582791660952019, -2.512305143987423, -1.4363181578299618, -5.126929946400949, -4.983139848903717, -4.190134303323039, -6.261146048428762, -7.497837345995118, -5.078856404990666, -1.3684382307490313, -0.8647485658004351, -1.508812336504544, -1.3580865615079964, 0.8136126277093867, 0.4170391575098861, 0.9307058548477024, 0.17807009996557294, 1.240591397667113, -0.3289432755376847, -0.4186465081147172, 1.5243532972928655, -0.34055696812536645, -3.3383544600123076, -0.9909142848039718, -0.37666542279996057, 0.8727022787258732, 0.8264213099656205, -2.6983855588230536, -1.85460306231384, -2.4651624220111232, -3.1111644225345194, -1.2506634474725284, -0.06976946882484265, -2.4131359770742047, -3.5135234745758823, -3.7967915128504175, -4.08112620550881, -1.6685383000852358, -0.9441224341663911, 0.9782074730108309, -0.24131436660074715, 0.14075272262096206, -3.159747681341945, 0.2761825780486519, 1.3312110750425667, 0.603220506427095, 0.16604518756374542, 1.0459928576314375, 0.130575169649462, -0.779933939533672, 0.041476448314081614, 2.69433644080395, 0.6752894387755316, 0.15333325669347336, -1.091017260064725, -1.0400731928988702, -2.54005222716788, -1.2961007404365803, -2.892400972222236, 0.718706238714254, -0.4703939464452517, -0.5290681945513354, -2.8865110468805835, -0.7297180332677505, -3.301606644422643, 1.283597736526212, 0.939154800887756, -1.1107055020626702, -1.6198462322799951, -1.0984295875425714, 0.850917860431888, 0.5417734831093296, 0.11349459320714933, -1.614595882381202, 0.45396131863954237, 0.8342642617803413, 4.159032823229868, 0.37919152711467025, -0.2712450599561801, -0.6807855075303664, -2.4495738193386427, -1.066316151325346, -4.203391271615934, -1.3034843558823492, 0.2930584735148805, -0.5288962431041376, 0.8447115787213842, -0.8133874618111675, -0.2031245783526621, 0.10796080587382358, -1.3303906105652812, -1.4362780945251663, -0.507299854909369, -0.8829762750382363, -0.5633858959423241, -0.5732304197161824, -1.1122640020178403, -2.0795363235479747, -0.3731674117386315, -0.8757126995583501, -0.015492578365900418, -1.0870447865816733, 0.40255370165924564, 0.17416503741975048, 2.7673210850120267, 2.0516397808499187, -2.9054307211658634, -1.7982914070575555, -1.4996121470558086, -2.045655481481087, -2.4524766695729534, -0.14227541226833781, 0.4616766161766262, -2.5695077312522105, 0.5756686038403172, -1.1401293538533401, 1.4138627505317987, 0.1533826120005867, -1.3263685464809887, -0.5701770786172194, -2.203593779415876, -1.2829239974729032, -0.23568571522446063, 0.8051400368857655, -0.9802540943950966, -1.576339959103814, -0.7752719708687964, 0.39277997142239407, 0.28246364268316176, -0.8214428354559602, 1.4051856896628672, 2.925586589017316, 1.0813392078157984, 3.156404165855669, 1.3470667074015545, -0.5561626171666508, -2.6376839753464596, -2.9215892591541524, -1.8697567926964356, 0.3286646104484486, 1.1549545861176334, 1.6672557228175364, 1.0542337029396651, 2.406898651782281, 0.9334499063049713, -0.46677509325847183, -2.4848659019821784, -1.0264557841878865, -0.24882681550876273, -0.2755736755863634, 0.4154986969394924, 0.35206765041903737, 0.8661884285756288, -0.7785559499033351, -1.7318932624151404, -0.09072344364776298, 0.2999318841557057, 1.8436819708646663, 2.3820031275676787, 0.9505755260365131, 1.7004902293395905, 1.21288539518202, -1.3056104082956168, -3.469210915874682, -2.4260868666555258, -2.2032206068651954, 1.5193683740412511, 0.1387408407610938, 0.6632077810588854, 0.13126882226520928, 0.9330362009030397, 0.505419730861673, 0.44671869942543346, 0.022328380828628834, -1.2840434191781773, -0.04926905598787684, -1.8245237953008628, -1.1109584175427976, -2.360719469967834, -1.180830636585337, 0.16805203324250953, -1.7123697277090284, 0.017833557171785513, -0.3299552293012259, -0.387841604519004, 1.1814975945751136, 1.6419189203658695, 1.0912260473652426, 1.95476337024146, -1.1975985697758609, -1.3055739045182637, -0.3231305368689124, -1.309018896922658, -0.8709433064334088, -1.7072274433689474, -0.6538062446444902, -1.448825956376934, -2.3234795153389727, -0.8122369243040851, 3.2232812245535607, -2.197975861349442, 0.8301031519627352, 0.18297930161393083, 0.8518478942698687, 0.25650878183156345, -0.022767836628568423, -0.8702026099167428, 0.021017700869528814, -1.1706787733315906, 0.4080120853464308, 1.287003112243163, -0.37566029773513104, -2.0199057071434137, -2.443252933886433, 0.22532665336672747, -0.4708004103453452, -0.2929577660098436, -2.207083550948649, -0.3303565547719758, 1.1904019739323335, -0.8890997880227209, -2.178126914926622, -0.1928999825014788, -3.0318858996398057, -1.2160190663664294, -3.2980872323101527, 0.41940388589143657, -1.800059676480035, 0.5925851050679892, 1.2132565360144554, -1.033608799976759, 1.0544325148070905, 1.0996046143222211, -0.24088378813890243, 0.11084265633648724, 0.4420919883322511, -0.19310985979599668, -0.46262498646010936, 0.8880429928209258, -0.8467857645149851, 0.029236097100925652, 0.12105473112854434, -0.5133167302366545, -1.0791416393583213, -0.691059218633666, 1.2245853327225444, -1.4929291151302306, 1.078442903498416, 0.4785964005663549, -0.034695276183407404, -1.402153946429576, -1.0407314341629148, -2.670845801656078, -0.4004278180850001, -2.7653202829786387, 1.0031600905575866, -0.16620791973316648, 0.25688638258230634, -0.6586163528450889, -0.8387022758307966, 0.6445687048706187, -1.2859787877501025, 0.5448444310240821, -0.05062153723291435, 0.6267569072347677, -0.924988462232726, -0.6967249649640818, -0.3040785992091453, -1.7536426217391157, 0.4032497615155807, 0.13779309240575266, -2.935577248535035, -1.3676061219454096, 1.727246639358169, 1.8165500709496276, 1.6290938216681352, 0.18162629639603492, -0.35165472609954074, -1.7130357626958037, 0.019777863897048897, -2.6077705838409835, -0.29117325556306967, -0.03263844216633199, -0.5687745358677871, -1.3845773224035876, 1.4273607887870445, 1.766242494394818, 1.2779798666295112, 2.6840881767407, 0.09033516942683292, -0.4498231975861901, -0.8276339023652318, 1.2873023948804174, 0.18918525395745855, -0.2726388759857186, 0.006975754962442769, 1.067660939396314, -0.05564549419395707, 1.4999709711087392, 0.03407199692788008, -2.8189089856915865, -0.4187026458298928, 1.9298250510131565, 0.6006784645421435, 0.93606387959259, -0.0938320838760419, 0.1887616473241028, 0.8940237703836273, -3.03744173889303, -0.5309373282345518, -1.145346058839639, -0.7171573925210759, 1.7172455096168568, 1.4939455203709768, 0.10849514660242755, 1.408370292320931, 1.3522299016941586, 0.0072023692879844515, 0.5310255603790965, -1.7521362005676584, 0.42260475186507274, -0.6548274626146511, 0.48611268577499983, -0.5450373849263299, -0.25583477180535064, 0.7970251625974167, -1.4694439792782752, -1.8605402577931678, -2.7719153623210557, -0.6000697818109104, -2.3413335519042464, -3.057564298383217, -1.2228201575645177, -0.6044671196184472, -0.5938134632956089, -0.034101990773023984, -0.5451689385779963, 0.3500543467248347, 1.1841730851352634, 2.768810454783127, 2.093621241971653, 0.785983640820753, 3.7708217695399515, -0.14570409104783505, 1.8455820391761497, 0.5318279398413036, 0.8462813208789965, -0.12910099592918015, -1.076134616939872, -0.999461278547362, -1.140305436522085, -0.7016367705327337, 1.7839478276041314, -0.7203079601150526, 0.41390101819255126, -1.438162964222109, -2.9297398520644777, -0.876598605117224, -1.801314547533457, -2.2124503663249966, 1.062824802666343, -0.7414661716185045, -0.6161028780025888, -2.1711116906006565, -0.29490168322612953, 0.34243593665461475, 0.2121253914076659, 2.0513785430294282, 0.9874538480887002, 0.5421289785364359, -0.06735592011116254, -0.0853905727098195, 1.3486832955709513, 1.7880013843772422, -0.6028382013584641, -1.387188882091716, -1.4221294784893082, 0.14870111288713855, -0.951565386736047, -1.3029775606536138, 0.2655049306117982, 0.6220448778736092, 0.32138910064839243, 0.3745130355574551, -0.3114234699642302, 0.19913930319288278, -0.3049492548414931, -0.6849436385014357, -0.07947047529545229, 0.5552769016137681, -0.14033770058331455, 0.943506895700908, -0.3915022147105168, 2.0023973464750915, 1.6638543216935078, 0.3078862123694884, -1.2049782887668765, -0.6171807997852199, 0.563370895922133, -0.5609822628930897, 1.4988209750266228, 0.415477375914557, 1.1915240343205424, -0.4515385375516287, -0.5415885792142919, 0.7736992926913115, 0.7476591021457445, -0.2727091543364676, 2.0673758453829287, 2.2112799131892147, 0.093662053361569, -0.7086270964755185, 0.5232049722001063, 0.40024883937443545, -1.2970972454287388, 0.7242112982777794, -0.488202886539024, -0.6171187540016884, -0.4208864371573989, 0.4339158968485164, 0.5955024110076708, -0.06868535000215406, 0.5489660805113218, -0.08437956109048748, 0.8917067800939513, -0.9791863639788799, -0.5175057855785048, 0.11493563570291716, 0.7158618813811478, 1.143215910557318, -0.04711307524144324, 1.5605951160309763, -0.131922968154441], [0.011296977706404547, 0.12705125876134235, 0.2129219099055053, 1.596662552343194, -1.9603281187797963, -1.5550519098441806, 0.34842753595307874, 0.43126501093437825, -0.859615340454274, -0.2379087239089094, -0.43324169553125685, -0.8566351798013921, -0.5629996966607568, 0.4265329896943176, -0.1736836100264135, -0.2653480377267781, -1.1204723160938732, 0.19561394416092126, -0.35889500993501744, 0.2664994397094562, -0.7689667239472698, -1.8209710686838778, -1.02204686455244, -0.19643220155784438, 0.05232020743978756, -0.5185989922298754, 0.17799624651914775, 1.3886334946438244, 0.06072695273410537, 0.3601862971170279, 0.18992484992061945, 0.24109173134456416, 0.947389936430277, 0.6487395430455457, -0.6939439569307859, 0.6447314310886035, 0.5013494996883489, -0.20957836037043823, -2.1831051282449505, 1.0635305897296858, -1.1606389552945786, -0.7325176501710743, 0.9575547507494938, 0.5532771893076034, 0.9123925838214054, 0.4024104674871337, -0.536795622896743, -0.5720227502095503, -0.39512753770939135, -0.7511434515722212, -0.758571004214686, -0.19977290619427465, -1.0654714409786643, 0.8221571204187393, 1.1150739008467512, -1.396442239332437, -0.6249230363553868, -2.6066706329440446, -1.606843031285463, -2.371329776069823, 0.8827537949434731, -0.7555607302807491, -1.7424549946753487, 1.6445117836558258, -1.6566016295508106, -1.003044882093396, 0.10365605003465604, -1.2926001245406722, -0.4616620534088372, 1.2877549308572367, -0.41971808426527385, -0.1641132512334831, -0.6101561808337234, -0.5355051406553897, 2.068537873223687, 1.1822514351641769, -0.06063618757075857, -0.7832569911886083, -0.8017490564510226, -1.4670185422678308, 0.973075815136045, -1.8342997406787718, 1.32905693808807, 0.7750128836536037, -0.01804686457272407, -0.9814373384589183, -0.8626348565827658, 0.22611476586877174, 0.8334536566671271, 1.3123799645022198, 0.43492958650082225, 0.08772121476221229, -1.0778498887026036, -1.3849192026755732, 0.2362614773165826, 0.0673878619687981, 1.142313602459277, 1.7206736136090857, 2.185193375770717, -0.5665129113549395, -1.1866490417287245, 0.17943967586266907, 0.585546594920861, 1.765532436143404, 1.5732126438126142, 0.8402681558511195, 1.0274608386419144, 1.6369452844998715, 1.3123064741917403, -1.0010506170512552, -0.9098369725858443, 0.3122308799027152, -0.142929556378328, 1.6380617578606569, -1.006699648475315, -1.2704658023472417, 0.20728506492539572, 0.2437417831664519, -0.6388117108983176, -0.012169800541170868, -0.9990212666016184, 0.1215191086515647, -0.22796458383435556, 1.1512008861862, -1.2493625358207436, -0.6815671454276708, -0.15346138316862115, 1.1614784862062142, 1.498315743454566, 0.5840532784720855, 1.2422319524489467, 0.37294489487746746, -0.13337214037218445, -1.2064075255937923, 0.36501049835544286, -0.05579573459225006, -0.7130231690483353, -2.2549116761462336, 2.074543191284596, 0.7345057885316906, 1.0967993638584241, 0.2532004164972735, 1.7498344164859858, -0.5154804089324276, 0.06351838341368622, 0.0815685037550211, -0.32752674105637114, -0.5691625605847348, 0.9018666924284426, 0.4430429290995957, -0.7892574740353452, -0.7524487874849541, -1.163141093881827, 3.026804047055382, 0.06961521877149546, -0.8660233612380966, 0.3664334713334251, 0.3796406302925315, 0.8554729922244784, -1.084021373011772, -1.146098240102855, -0.929380395072044, 1.0557932631197753, -0.48812839261012203, 2.0852943175488297, 1.0943012417512954, -0.272124130023032, 1.525976288097936, 0.605369587925581, 1.0163908666481234, -1.3702662694614234, -0.6926317248974521, 2.062054204546133, 1.716485816456605, 2.6520480274962255, -0.049394959241811, -1.5183636506792895, 1.1692154465229838, -1.1995573043094259, -0.8633128489206979, -0.6509337750515614, 1.2998799766071685, 0.3130705696595427, -0.6917291604894243, 1.0966105753377615, 2.3155911364608737, 1.7935159412353519, -0.6140849957370295, 1.1805012302263465, -0.0035501863765553584, 1.9840791954508936, 4.2888102204050815, 0.9214924622653788, 3.4665243291788874, -0.34833264256572927, 0.17993544006430254, -1.6293026737724692, 0.571990586105097, 1.1277710758153916, -1.1785391203143019, 0.20517067065550734, 2.15544936784508, 1.008698740192751, 0.16272752526628434, -1.4224960277860748, -1.4934857155007217, 0.1968027790327451, -0.13470389636124913, 0.7548509090812804, -0.08259608141536112, 0.4666307235549045, 1.4970777512760494, 1.0804314149067844, 1.5004088138024874, 1.1433866768782963, 1.1830992314036224, 3.230714373095981, 1.007684081780609, 2.4567847798008366, 4.093568246909741, 3.2443482099958367, 3.0355546247959957, 3.628943541651661, -0.22776496260642812, 0.7223116868736765, 1.5646235391021959, -1.1556598231065722, -0.28486220445937366, -0.035696792180779105, -0.5742006886454496, -1.610374311847349, 0.24257572788771775, -1.248239386348683, -1.7236136743539776, -2.469446242542407, -0.5062680445246834, -2.339448444076095, 3.1068533338834605, 4.574359941026285, 1.6341348144804093, 3.354104993415442, 2.644837985903983, -0.8793979338131825, -2.6856650098004256, 1.0962116292539823, -0.9443898759728591, 0.09341328499713948, 2.774518965188797, 4.401100695322234, 2.578534735386255, 0.9769261368809891, -1.1371271266724656, -0.03687904831300705, -0.9559031588667495, 0.20949584493021808, -2.4159814226012273, -1.3233679434058216, -1.384974324964602, -1.242545070626123, -0.8669118475942292, 0.3962508954273611, 0.8164338384466111, -0.8085263821114131, -1.9199466806767762, -3.4953254790029966, 3.3641471560681624, 4.33136971556059, 2.4984616160029245, -0.5617727863617363, -3.460186362806682, -2.437009414083209, -2.663730061189898, -1.7031107352402166, -1.1877628736646766, -1.5031196847549348, 0.2030605387862588, 2.4421414966342225, 0.004916761839189006, -1.1712899364165694, 1.3237269137902283, 0.9133492666572782, -0.003292028198817869, -1.0061709250336865, -1.3892654595837006, -1.1373366169898376, -0.9198531368375279, -2.791533197436839, -4.138779764412241, -0.29196160109959146, 1.620955817310881, -3.1577353631758065, -1.9112880564824797, -0.3847129916151105, 3.4620225695361797, 2.140741835578933, 0.5505152192427253, -1.1965562757377957, -3.5494053372088867, 0.1132455418645541, -2.6712259842209094, -4.827090117977603, -3.3767582321000367, -3.0979699277458046, -1.7167646787689537, 0.9782105661805984, 2.1950150870287692, -0.7560204127090635, -2.118515209921759, 0.6024929005590878, -0.7674645108486603, 0.12601887929520544, 1.4934290121626639, -1.030988611274485, -2.508079067080413, -5.570036681090318, -3.4633423294974977, -1.1311542792906448, -1.4381862859726036, 1.2946183653626682, 1.0361349371283435, 3.007969015333661, 3.7726119606251176, 0.8868245219854635, -3.2957570946264245, -1.5491292513065833, -1.0862346349955216, 0.20752404404748437, -4.052433520170147, -7.170803444067036, -5.256992973384757, -3.6182148711875874, -1.3329578990395907, -3.174301830393581, 0.13148142246262368, -1.892428255841695, -0.9376077995132599, 0.03808057268434475, -0.12783296414699521, -0.31394078792070584, -2.3771891805613015, -1.6038670135219544, -2.6406475482337934, -1.234835126301039, 0.13494460630819535, 3.2414869355427602, 1.5489604190797974, 2.9691890054740364, 4.745126672500101, 5.550424047524832, 3.502791353139682, -3.4124671761183305, -5.609232111005932, -5.954012290497386, -3.693040638859043, -2.15467847677711, -5.05555320247413, -5.390226615017784, -6.898408322908009, -3.657869850760903, -3.0372391490626374, -3.271127347429092, 0.4452674273808726, -0.38060915086258706, -1.3981080070726992, 0.7222078559580192, 0.3388866918039274, -0.9327118790572516, -0.6089968478470068, -1.654667215331506, -0.7003547101292606, 1.0984794367760018, 2.329566241250236, 1.514141022055561, 1.5906493366381222, 4.223157110850326, 0.207958167896543, -0.3012167371291371, -6.053978443486612, -4.925050375627665, -9.291950910374936, -6.8048661723719, -4.381522591670488, -3.1805639174493643, -4.591453266537165, -2.2507953547247608, -1.4415289087270806, -1.4151759125329393, -0.9506233502363538, -1.1466506327773096, -2.3394403686900205, -0.46747561534092313, 1.2375600493224885, 2.18592809299748, -1.5858558810354937, -0.023793808644224795, 1.317144783838665, 0.26026303699893105, -0.23414037674948285, 0.016704637937278187, 1.1762345477965748, 1.7310505707665378, 0.7752008121303797, -0.3481388521593811, -1.8308435360581103, -4.797986393081414, -8.241361514616253, -3.891581410076334, -3.5237693637008545, -5.999082423267866, -4.587896247088832, -3.685730782040558, -5.108217233974845, 0.21022383198320538, 1.2512186009224666, -0.2920877755351604, -1.7195340139948412, 0.35957094592683003, 0.9242853336849987, -0.2533106877722991, 0.4324056158201657, 0.31131294670406257, 0.15261105801997607, 0.42025790993172435, 0.792136575201924, 0.35117867435745503, -0.15195932482434574, -0.11675834119938396, -2.7811526610408492, -5.1089821199857095, -3.7250932169710578, -1.1643250507161076, -1.635603870321898, -1.6312222470366822, -4.8381816985053625, -4.39834794419525, -7.632143294588638, -6.3105734724049425, -5.808571744824761, -2.9455844110686664, 0.2411154109051353, 4.655139672050227, 4.648402066138177, 0.27777994387033444, 1.1781556200684031, -0.31635910858650457, -0.5529431199917066, 0.02818923338175721, -0.7919532570200198, 0.4347004140627474, 0.4706097655071289, -0.7137598529981775, -0.6422722030635059, 1.2295449583865232, -0.0779682284001179, -2.508818151956363, -3.8910913969526173, -8.187327715063459, -4.933359932533015, -5.740517483281426, -1.6166699181111486, -6.129788331326045, -6.676395869791564, -6.494776849889237, -7.351752871902361, -5.388693811264945, -1.1401867061222293, 1.4238880947072465, 5.530614271991042, 6.599610547450205, 5.0018978633907905, 3.059233590621185, 0.6664716549098518, 1.3330705016346625, -0.38541528735548597, 0.31616200042240555, -2.434478303176553, 1.3509688496250987, 0.7494299475513542, 0.29929470666674957, -1.0582525920725314, 1.2885190718846764, 1.589444968711024, -2.09131255251304, -7.603762425327946, -5.332947991290155, -7.436247312747199, -4.194888800649615, -2.7892942590816, -9.718092551049601, -8.058179592976211, -9.48765537487149, -5.934621940011417, -4.3404012996403925, 4.683637809740164, 2.8276519922511816, 2.7933024268808113, 0.8697052074640572, 3.9042533250712914, 5.556329316709712, 1.3925324479260694, -1.1639837258228858, -0.1753196769543088, -0.1720667542809407, -1.3202081614947039, -0.012702333807894699, 1.000587179375707, 0.1157785935695644, 2.529804006147729, 1.3092800812145062, 1.9136133805189732, -0.5657165081106353, -3.0935021254354527, -2.161593645854625, -3.601164726997028, -1.8662227410927263, -5.254654088788519, -6.07668470660051, -7.065630860558854, -5.904424687689386, -1.6459548102323516, 0.014389254740878652, 3.9437223606000913, 2.720118614805945, 1.883953015637003, 0.6158586250670748, 3.3837432659798723, 1.7075736934812678, 1.0422800088985091, -4.518326579639399, 0.2081948813166707, -0.7990021879316278, -0.08641741278713584, 1.1186914718519443, -0.47083781056209256, 0.3448933251641216, 3.1410065656762387, 4.5676651112391955, 3.503717361049777, 2.6878025626179873, 2.944238448091967, 4.351817152617666, -0.8838140932220182, 2.35600591099935, 0.6538646549916701, 1.4025737820887592, 2.0288537974438086, 2.0375950307082413, 2.1587916583784117, 4.814918862454076, 2.52139778096519, 2.429763856225231, -0.11902150536101619, 0.016937981831256634, 0.7631670516255161, 0.14745652204786647, -1.8354625518025929, -1.6309588163650672, -0.6844721213603295, 0.026050198249370177, 1.2308590592025543, -0.6929857459504282, 0.033577783666809045, 1.8954966055242424, 2.6020279236522894, 3.104694732982292, 2.82316881836667, 2.3812290381773584, 3.6103118705579313, 6.6252609554859365, 6.256961127607648, 5.303849769856356, 8.77143136376934, 9.224622530957626, 7.864516039083449, 5.632265193881958, 2.5359062633874294, 1.9255392478714715, 2.415105275778393, -0.9165020652309588, -0.9646796199947479, -2.207291363424756, -0.43931838124802935, 2.3208425353092275, -0.11804633280162177, -1.4360909758324287, -1.3917720086459484, 0.009601662069719071, 1.365967250525489, 1.0363705504503438, -0.2383063735915021, 1.2202219047949063, -0.37567466602217464, 5.049390039376285, -0.26651776186760473, 1.0957564854477329, 2.9763602758283896, 5.538825297312324, 3.7383335128083957, 3.549563415989442, 7.027631835085573, 6.762718062472067, 3.669808690774166, 3.3042564639379806, 5.596414205542652, 0.8528591624175864, 0.9524297322242443, -3.006179310105071, -0.5735046787646609, -0.6073394360811517, -0.4155281229488209, 0.07013651553252584, 1.1378296280537006, 0.2793060094841388, 0.8263522693989285, 1.414959181055018, -0.6452525088577391, 0.8729656655985575, -1.2122410118506362, 1.7159703080072157, 0.8617786185216786, 3.5922752801334186, -0.12272465032598232, -1.4896575727564845, 1.7904216124895354, 0.9487303403527735, 2.40876115426859, 1.765639923296432, 2.221212135800018, 2.628509967818069, 4.034657152320917, 0.13819716297020482, 1.8208460445555905, 1.9782552874893866, -0.42169054190324007, 4.563126503842256, 3.842367112111483, -2.9821150342204157, -1.3825172263740824, -1.1798111790108543, -1.0297430728983614, -1.7054781965397456, -0.05303014089304642, 0.48835189055892736, 0.50130334653957, 0.3522341564243859, 0.22567663041568922, 1.1045359974041529, -0.346980860946449, 2.621987253312188, 0.09528097127089848, -0.20560267008068878, -0.7692571505443739, 0.6755841537623999, 1.2906046553784274, 0.18012579311214025, 3.9422801008747594, 3.456271963620904, 1.377306290783407, 2.856943941760027, 1.9080940193654206, 5.359734742482426, 2.115125528061998, 0.9163764183213218, -1.0037440238446875, -2.418438049419266, -1.5374571216716038, 1.7383934157028935, -0.07188156538185646, -0.9396633543537739, -0.11470696520819043, -0.4339485495510934, 0.20954674703830703, 0.8251390740768738, -0.037162476812979836, 3.121868220913816, -0.6903978627315926, -1.760773715955986, 2.12109349871406, -0.6653361946532436, -0.27779020326741694, -0.7498731459499798, 0.2755481282612933, -2.1401956724724114, 0.7466768303843276, 1.5118614336987117, 3.515002879788733, 1.3700812558377278, 1.2546092024623594, -0.8744746543851203, 0.22698964606011332, -1.523295553623402, -1.7375974068304538, -3.2591224943608954, -1.5898399983209528, 1.1227087176209225, 1.1982581427972452, -0.2241630519911242, 1.6858396489451952, -0.11601915574957444, 0.688835230893652, 0.7184701832921815, -1.6555560975012604, 0.28307827811981534, 0.6009725416306738, 0.43486507841021954, -0.2457933438167955, -2.9063123565744835, -0.703488564983221, -1.7278022014111527, -1.7204175188957815, -0.04586512179015801, -2.2757584109964526, -3.243008852576376, -2.2019723797378474, -1.4878942101448343, -3.4851592450814004, -3.028770149099735, -2.312658757613781, -0.8978096940997476, -0.3247978567127749, -1.921214039976462, 0.03611246095455285, 1.3490359353864838, -0.05141273597974649, -1.1998354307655341, -0.21115544355029117, 2.102359139734207, -0.01887297305420451, -1.0211828676278634, 0.3957751111433039, 1.0414782604809942, -0.06745660441508387, -0.7734051778559548, -1.1986113178120774, -1.6802427221993148, -1.382639540831088, -0.8307264974273346, -0.9213136385792252, -2.406001177101879, -0.6881320703533051, -3.2288243087225763, -2.030951986365829, -2.632528362019387, -1.7803229540717493, -1.479710355831779, 0.7048342921741227, -0.018254500919809253, 0.7580631632384192, 1.1058750984994845, -0.08946340075141902, 0.1510007636538395, -0.13935306218212534, -1.3326401269545176, -0.6616157454101524, 0.8383234299288828, 2.2681606165828225, 0.4024305447684307, 0.32407494275782533, -0.2915046857650058, -0.3464129073654241, -0.973576779941186, -0.5307303910788078, -1.0569722504275751, 0.07616292015571524, -0.9793616321822722, -0.7416139982727634, 0.20420257751893192, 0.426783029257385, -0.9771378466748294, 0.4217090919230449, 1.007428412419706, -0.19673577950514137, 0.5864447560714203, -0.9389406046809449, 0.00412234884104434, 0.12920507602496464, 0.9425535546641602, -0.0775196235535027, -1.4247510695428056, 0.011873806810621465, 0.697363333095918, -1.3446725033164013, -0.029217435588316465, 0.38622267994378884], [-2.3814468372227697, 0.9364832313376232, -0.13606907962350176, 1.0480407104870664, -0.31962770612360275, -0.5902375854840105, 0.5004701704984068, 1.2317315160722435, 1.8972376420237442, 0.21762826214166575, -0.5859729030722569, -0.225649809591177, -0.09205465450926933, 0.8178734715406905, -2.768030897687814, 1.131082883261592, 0.5942017736122388, -0.06781160024362914, -0.07496195331521985, 0.1786692092694352, 0.05305560414258444, 0.128900426114353, -0.8721105672432096, -1.9748297498022558, -1.2753410958587414, 0.25439845802156685, 0.4319326998540154, -0.5660866910950267, 0.9797719265613727, -0.14434983243374405, 0.8742869563817671, -3.3950172443995323, -0.4202993434473992, 0.6004030147487709, -0.9494621749207933, -0.35380891507403434, 1.2828083656221154, 0.5673256655680228, 2.317098622047149, 1.0268141093435932, 1.2576277665188922, -1.9230795125028683, 0.7940217268734456, 0.4045605990594978, -0.356766231573469, 1.1708111557979275, -0.056247644233681275, 2.431066373415523, 1.1184070123076744, -0.32699832241823396, -0.9141881966588536, -0.5955615861870192, -0.9859851523397525, 0.4506625776228933, -0.8206087156014151, 0.26009447645899636, 1.6183519955690613, 0.9584149318161483, -2.060270806142525, 1.1019180023958899, -0.5721086603560867, -1.5466252204895086, -1.450693371118107, 0.3283009755528817, 1.3005102597001101, 1.1188980175328749, 0.9551371051863979, 1.6296247578133745, 2.0885273897768992, -0.3695117219492104, -0.4660367348002729, 0.7398645672126507, -0.8094424948853884, 0.39344913346672683, -2.4078532272874815, -0.791148957742016, -0.1335222974571783, 1.099880531957807, -1.4005896380522271, -1.4820807838029604, 0.3500663744915789, 0.6920530482206898, 1.873840912458732, -0.8831355832918286, -1.4548206941954764, -1.1886867469604139, 0.16079854379286138, -0.7751583250702325, 0.3271427572556488, 0.04656887880696657, -0.7790593557267844, 0.24440530783547176, -0.0024115769972889705, 3.305024670680823, 3.1148154803373775, 1.8258507434419806, 2.610071958758098, 3.808796113145984, 2.012531751270534, 2.773750912905765, 0.717675653187978, 0.8199337441166465, -0.20039197751626148, -2.2430362687266445, -1.1205087881717635, -1.0723805750909952, -0.6754808328017043, -0.9252202057033221, 0.6853939376472503, 0.026521762265059947, 0.33257628036752684, -0.4200773699996861, -0.7719721972700601, 0.3543620739590915, 1.647865970441874, 0.2436853579265774, 1.1013215760111597, -0.9823415905758301, -0.4755260816653582, 1.5834222683202552, 2.3018961602345964, 1.354132517785672, 1.9805062904922408, -0.9057529020111833, 0.5578047604109314, 0.4400900374117506, 2.429462803634757, -0.6979102997627585, 1.5826879059453491, -1.2731897267799597, -0.054499056291641194, -0.7675354675729607, -0.08671307137846904, -1.2882758745114078, -0.019504048815914384, 0.04146669984878755, -0.3671956830852779, -0.9421275477641634, -1.7045070598387801, -0.7280672442712786, -0.6993708949150891, -0.8511677475970038, 1.6926520505543532, -0.365134645474525, 0.8444971013787382, 1.30845292921205, -1.446451964587507, 0.6834932401886077, -0.7730534026169347, -0.5675780541661669, 2.6842390393933537, 2.3287109131127806, -0.4189163692215012, -1.8030834960824076, -0.19135707276601713, 1.9593209913371414, 2.0837692299434116, 1.9931383753734782, 0.9246571838380102, 1.7545069115661194, -0.429547370273494, -0.7827743638318104, -2.2526467996809765, -4.091163081189355, -0.4863407851128584, 1.1381951348169406, 0.8242224167242266, -0.02640873511107907, -0.311531915211975, 0.5154967548837133, -0.10932111191485257, 0.2020148293439673, -0.5859549458549914, 0.8225348236216891, 1.8403397661831349, 3.782296707145649, 1.7728248567344063, 1.2629540213527128, 3.864596073939519, -0.29746844588389765, 0.7092193979395498, -0.43530458029721364, 0.3469645173914248, 0.486227751101626, 1.4149857181404568, -0.6076830002625341, -1.845875591901539, 0.09972010810236719, 1.489155784163492, 0.29173445748317767, -2.005400132730672, -3.2466020500423083, -2.4885378360531063, 0.6716827390322594, 1.0995370661906447, 1.302447874252679, -0.9221883653673288, 0.5046753959905269, 0.7760283285506318, -0.5317765574302753, 2.1053156915911857, 2.497451167846065, 6.129018566533438, 1.9332547759357959, 1.8391854871715205, 2.852493247748751, 3.38656717706464, 4.199206233320253, 2.262211877249678, 1.0199054855573475, 1.4581829230136976, 0.511973748673105, 1.6427691161640139, 1.9407643714548966, 0.6453918144694716, -0.28528369729860587, -0.9508740100042375, 0.48305571555845633, 1.4882054639616227, -2.907217908278007, -1.7470545583017, -1.4476766974979383, 1.0847665140460434, 1.2381747409452508, 0.3958007239409537, 0.8029575826628714, 0.3444435673194144, 0.336037048505462, 1.4897494391275992, 0.8671833886959763, 1.022201466462351, 1.7362856384778498, 1.981464460950042, 1.7035207897035256, 1.7527385515411469, 0.8698619838652811, 0.897405816264955, -0.6909344152364011, 2.7036435934623637, 3.92001104545244, 0.10940941100675862, 2.1318586364090377, -1.8575977062404674, 1.0755117324438856, -3.310872982560589, -0.30232626659951023, 1.4284277151458489, -0.8504542119326783, -2.05083888383463, -0.7555713527354184, 0.29643868784152133, 0.0177399448352129, 1.066153266112751, 0.9870672175000411, 0.7573610257257933, 0.2155626738895513, 0.7050535061412272, 2.8700539405308927, 2.264274244207012, 1.2006361018645242, 2.640570815251265, 1.9839119041673612, 1.8709350737342865, 0.7543888338914451, -0.8096799453286845, -2.239236332828078, -3.4483689002346147, 1.9826967144472005, 1.3022275512491166, 2.1120607549044297, 0.7789653210845432, 0.012290960768557325, -4.60713452419775, -5.599424580324032, -2.744780664993433, -2.028704710189985, -3.1526795788742743, -1.205860125375613, -1.622594284717154, 0.15585687186490174, -0.5490296430869089, -1.7640921039767874, -1.1067002724196568, -2.6230394625852145, 0.3313535110239682, 2.2253623107100737, -2.7339479740842365, -2.4693439485243567, -2.6405837781990864, -3.21303786387954, -3.007414757929574, -3.15387366340796, -1.3938271974433616, -7.870356169850757, -9.563304895097774, -4.312255561940812, -0.3514359789795714, 4.0484055671961325, 1.3214394601583708, -3.733011579685401, -5.642096155168003, -3.2054401430433335, -1.4266394286425492, -1.508682218392826, -2.19134597332923, 0.08149719637119293, 0.5302850927500627, -1.886577729082206, 0.03938316762294095, 0.3576381549866844, -0.47492694593781604, 0.031206387358309644, -1.3153661253072322, -1.9942358525293977, -6.163858124662823, -9.594290877738102, -8.325200921277947, -10.373818719337445, -8.326316373213878, -7.421711352431601, -8.981554986891645, -12.301214116480901, -10.67446827013765, -9.193879394590853, -2.6976331800020024, -2.9184129158907504, 0.9552876813450113, 0.010286835363931962, -4.105243788021296, -4.410780007762441, -2.9665152710265965, -2.3526046738415918, -1.7529354308571623, -0.48515333872047245, -0.7763228199348159, -0.3476181507894147, 0.5527382088650976, 1.816511637780031, 0.6742212560066214, -1.3686400410780337, -0.26458478303187133, -6.396184954721413, -8.954595618215402, -12.498002191492972, -13.280589121489648, -14.130266206769925, -10.739358101101734, -11.491872081980349, -11.58772754881781, -13.87759748901463, -10.795858666337269, -7.6515800295913, -7.079145428781222, -2.7470685743887158, -1.569803972055315, -3.8643069919589252, -4.353833785414359, -1.7415126617168428, -5.949840475365049, -3.6639725729268195, -1.2398320548927741, 0.28352415141845894, -0.16057330325112615, -0.7363707249826771, -0.23465556208856142, 0.06755215333546613, -1.2363014593832382, -1.07492471589693, -1.61959067197913, -7.874072235781678, -10.88648259358419, -13.570991858377528, -14.062158453444118, -10.6447590410179, -9.162803730024963, -6.773525069404658, -5.670732218524565, -3.856006344954502, -4.758045840625191, -5.583586909439549, -6.224598041778281, -3.1491098795811157, -4.15205387686744, -2.646616111443785, -1.873768223274832, -2.671004888681165, -6.185149887991574, -7.702333019017087, -2.7820438286353317, 1.4074798521970142, 0.0025016404350528642, -0.15716065373043409, 0.35955229488002766, -0.0668497470689153, 1.4011673795622326, 0.6748694220366472, -2.5525682888081382, -9.336230719211745, -9.294653370843307, -4.6382026310019135, -1.6772976885046353, 0.6343323916846204, 0.604205883733072, -1.1196377089448581, 2.9333789270972273, -1.1948533922330862, 1.5920653107010339, -5.947751967189327, -1.9901358349587095, -1.9462039430193137, -3.7918885328939638, -2.868044045127379, -1.8191727582082542, -4.049836913636477, -4.428127810424687, -5.671511970992351, -4.221529379101593, -0.5126749505055055, 0.8657488460214541, 0.5952017570556497, 0.2986999854443001, 0.882291795685424, -1.0227186896396563, -1.4665977539239459, -1.5737329921696932, -4.052365399773715, -0.5779061108168664, 2.903705987273409, 2.5322950583528745, 3.287524091035532, 1.9435268591085382, 4.23592879813358, -0.21358538302065183, 2.37022602172227, 0.8512272753742712, -0.054134255500788486, -1.038092854787239, -2.2018019006426046, -3.2497998267130987, -2.2568066051518034, -4.689630507501164, -5.35192471141108, -3.2946948764885744, -3.1906033367421975, -1.6212126018551847, 1.0719487772501028, 1.3253837348442394, 0.31229243216600605, -0.08858190579027207, 0.7977046048366593, -2.4027237800546484, 1.5162945044453784, -2.271729296074728, -1.3116297313120082, 0.8682711004457394, 5.295729271552411, -1.1683884008426977, 1.908510746907375, 1.8065601128974056, -0.7716037139803348, 1.2772284982458282, 2.3205998776843817, 0.4064738457722445, 0.7348444817129881, 0.08472471770162864, -4.879242861824185, -4.618738213424456, -4.966079755222549, -4.589577217669861, -1.1603889220998123, 0.7085482604421897, 3.9014516383198283, 1.1584494438088755, 3.0053826600053917, 2.261020763897237, 1.4773875843228226, -0.5857997739219263, -0.9414089995290175, -1.0076169245143693, 0.3543865306202426, 1.9624375767666946, 2.970397986582276, 3.802374176176876, 3.4230056323455034, -1.5054905856552976, -2.454117297986376, 0.5093878177390998, 1.5645046741945465, 1.8296951772963614, 1.7144370966158662, 1.6787095223755069, 1.8256787660882101, 0.15546066876024303, -3.8478386360028414, -2.1520638675110466, -4.1900056154167205, -3.360116709053645, -2.9839047886170715, -0.49695317099332026, 2.748379377832344, 3.727674959704001, 1.924884745525081, -0.3198202714650336, 0.15753801739802936, 0.6870060829043478, -1.0801763563537772, -3.624519106221784, 1.791589567225584, 1.3595594535072038, 3.9993611115165675, 4.56844027965007, 4.458380885989734, 1.960100758425869, 2.4443752283846045, -0.5150116496640832, 2.950660030994138, 4.86328162519912, 4.019393380253333, 3.6570291039616944, 1.9645040215863716, 1.191763403026492, 0.12092540955337225, 0.010530254086876639, 1.230429106347131, 1.2514078880315969, 2.086899941575261, 2.7692161618489703, 5.305730728158423, 3.498464791035165, 3.5220559511236544, 1.4465511309027084, -0.23789394048875645, -1.067082713559958, 0.4424110465016688, -0.11561586105579287, 0.7927261330248715, 2.9152432669861588, 3.015937529829825, 2.7830220250026327, 4.359370233905632, 3.50026457275118, 2.4704834277556382, 2.3517977896715436, 5.04579245595209, 5.292778591741123, 6.235586841101574, 3.2399508038754923, 1.0926935537020177, 2.311740533074295, 0.6032260073817136, 0.07757083308724429, 1.5073988982205726, 4.96726948547877, 3.878438492899713, 3.566769412060265, 6.4798404542802235, 2.844859753067163, 2.6282632296594652, 2.3078559737601836, 0.5153420759818005, 0.8563900957817878, 1.0928724338258402, -0.6752524157354031, 0.24770944875339457, 2.0994703368059584, 2.3589912727615854, 1.3290149351918477, 4.113385083970847, 4.890267233102176, 1.9248746850414147, 4.115141026376444, 6.632971011649782, 4.531020965838383, 1.1642586724006136, -0.23438563185489567, 0.6800480417862977, -0.11746636645729477, 1.007490382081889, 3.150350525516898, 2.1111431145007074, 1.6390888850576575, 3.0425630241962716, 3.7395511443929363, 5.114183661239455, 3.1654080420868174, 1.988926346943018, 0.9366773676554441, 3.103861121053277, 0.139644727189043, -0.7399674089444975, 1.99803139103838, 2.279849352634148, 1.1472597795642392, 2.566967013323697, -0.14040111975375216, -0.545549790601948, 2.3950035740388302, 2.3667415639383997, 3.6003758113751267, 1.8292311256682972, 1.9396644787822535, 0.3502503821171247, 0.3969912679109933, -1.5806661893423437, 0.1154301290046681, 0.8455166509487366, 2.973841520249313, 2.091114083924515, -0.7966792122678594, 0.953894906242693, 3.9792814684394426, 5.091976892427233, 1.6931058823735812, -0.025989856677411716, 1.3862932655934617, 0.45094574023509254, 0.06750465210968498, -1.780664754418051, 0.666112643726313, 0.47062026381677374, 1.6645708467029745, 0.742930699889304, -2.126592864054743, -0.19049044394829817, 3.050616992719633, 2.397508096409655, -0.008220729204826803, 1.6021664686092987, -0.21272257159390576, -1.8236208530622087, -2.6631514280423048, -3.7292497455999385, 2.8259910630002745, 0.8753589501403143, 4.039474720045452, 4.1695727429993825, 1.54787273002261, 0.2709759277282263, 3.309567149250125, 3.7652248220490367, 0.46338786462959297, 1.9653787451702223, 1.4769363753592597, -0.9521321715926478, 0.35631529746188556, -1.0037644592781843, 0.26030660894540575, -0.43338236071258057, 1.3929142673985797, -0.2906876113019728, -1.8272795645088211, 0.5168392576605796, -1.045586787602268, -0.6813285607537849, -1.4156802844432312, -1.9814420426498094, -2.5716448796488995, -1.8963551962915568, -3.3781017814926386, -3.854402780501967, -1.4521411752658047, -0.826389029373343, 4.621423510390299, 2.233214184938676, 1.981825071410254, 1.6789871530687812, 1.6686601940490167, 3.520779829776289, 0.7231134816008216, 1.732648183466204, -0.5392823815020558, -0.9991130161837126, -0.5838174340076332, -0.22809839614803884, 0.2519966341491636, 1.2295431518226534, 0.8508683443600622, 0.024718045413044103, -0.20835381246966359, -0.5028924204076857, -1.7913079959094815, -4.519882228266162, -3.358172157145492, -1.0284498107311768, 0.7677568515869392, -1.4532765773785796, -0.66461024803495, 1.3463952338273946, -1.472954453216068, -0.34016201715111777, 2.8907299094624097, -0.5164492573257022, -0.11087503236667076, 0.7697935907427114, 2.079790092746679, 1.5631709591358127, 1.2058348883932728, 0.6297855070517656, 0.2811648750770423, 1.0479094317261324, -0.7278485484451609, -1.142093835779912, -1.4010015462137668, -0.819070032572131, -0.17424185710639253, -0.35053353926675085, -2.0743546474312695, -2.3640707589771384, -4.602546930503708, -5.133307355407977, -3.730414716337727, -2.0190169043112256, -0.8064566840240265, -2.3194955627705807, -1.943935071299229, 1.5433650909404508, -1.2635488950530656, 1.9769013448457802, -1.0066926805629892, -0.7024854802374313, -0.3882855843011334, -2.0794864849447574, 0.5428867132866894, -0.8715849626328879, 0.1540581858712235, -1.1449671635883938, -0.5820549039739868, 1.7349773442756586, -0.321574665000788, -1.5366859027335018, 1.4671040610501662, 1.0695679726110718, -0.5991175524153144, 0.5865266636176744, -2.594312623845764, -0.35277879764437753, -1.8188349500411762, -0.7754934125501399, -2.8196542362344266, -0.43471855893586037, -0.043984283004104625, -0.1166201272915428, 0.08372837004106955, -0.7385566134424957, 0.5183880962322961, -1.3224654054249698, 1.8025834518655885, -0.2779817565326559, -1.8704774275321916, 1.2429068940184376, -1.1921645091012116, 0.9719302154916347, -1.3468977837762706, -0.1751483851175911, -0.08667710741721311, -1.2024024719680588, -2.010230902925151, 0.20954869122995237, -1.2610844423636216, 0.5472713554871669, -0.15103510035335288, 1.858879111850552, 0.041959203940174564, 0.305680469412061, -0.12926245803546865, -0.47203763197320364, -0.1990715562548477, 0.4482927154853154, -1.1889584042663088, 0.04032991472336, 0.7255127208160889, -0.5928891535217015, 0.46392673400282336, -1.3891631452251167, -0.15552195299723465, 0.921671425537114, -0.023809807538728543, -0.7740843667629151, -0.8859327448555263, -1.162124560957055, 0.34489248763078223, 1.2302053706845328, 0.7071321358992858, 0.7400675120553075], [0.630416013105764, 0.2215387891827757, 1.5965427150647202, -0.849989975466131, -1.6327212282286865, 1.53513301794975, 0.22296837304271463, -0.2761334999414948, -0.8850334483555378, 1.7972301085194922, -0.7379537745120875, 0.46851246956969417, 0.6950797711348792, 0.5452721681511689, 0.9543111028796241, 2.807809097173038, -1.0561974105237586, 0.9262241967718405, 1.6222923004335494, 0.13232039092024936, 0.8042631661375308, 0.22056999686864726, 0.35904524581674047, 0.1687791567793562, -0.265377126958782, 0.6381096504246603, 1.818812752875551, -0.7157604567577514, -0.5019588290644569, 0.8845624579880474, 0.6315944059359333, 0.27419646981460005, 0.061600617967691826, -0.9490562369224469, 0.11241826640102527, 0.13915639584737016, 1.1626397162503253, -0.7590732237353714, 0.9419924706348076, 0.019804451516597463, 1.2385167777056267, -1.6888091693167695, -0.9724206721658994, 0.16485028580345323, 0.15859396092355252, 1.3449739087847912, 0.5250116549134399, -0.6838274139577236, 0.3390934692705333, -0.10781694991508801, -1.320870182776769, 0.4919338727434032, 0.6681052070055626, -0.2196209133250831, -1.885491514247155, -0.742739520677701, -0.37884011505527887, 0.6273081021613619, 0.5320321646735658, -1.329335005735215, 0.12696330247232263, 0.15214004707973386, 0.66355443249513, 0.6912347997004932, 1.1097565325745895, -1.295925583887819, -0.4683221158749501, -0.2944552182541523, -1.41765646840706, 0.46364660565525956, -1.4682395657530187, 0.8359778112791403, -0.460711488376011, 0.3349967101224388, -0.8204597926070939, 0.8080765369033951, 0.8689461716309202, -0.35328891457800315, -0.8451320996095651, 0.25449870296809396, 0.17450301053343184, 0.3789111262081544, 1.729791783936832, 0.20279308628897413, 0.38340934669452165, 1.704886939797195, -0.17477471427622102, 1.7205687982573965, -0.6759739677317607, 1.5619564915382904, -1.5744841959268405, -1.6840253397092082, -0.07365549655174415, -1.3581387769540607, -2.251691363252835, 1.403903741148323, -3.011539180978942, 0.14549427894017486, -1.8035436229181652, -1.5444679417651277, 0.1799860278485751, -0.2515115315190436, -0.49435461276245024, -1.1247390835506794, -1.517791031134013, 0.5451507661085182, -0.0056594273748389315, 0.35182459750185124, -0.7887505196981902, -1.2217644784185304, -1.9930797449559325, 1.5771377598663168, -0.2670368717652545, 1.2798864962203105, 1.4140083583674483, 0.3917515043439028, -1.4162831518126344, 2.303788946124402, 0.09136031767292964, 1.1917313485981424, 0.7705687257575324, -0.5429963542248012, -1.9712099769886986, -1.7180065824357853, -0.9946643521764039, 1.8135624233135639, -2.395893107358906, -0.7371740432745029, -2.5183437348666784, -1.2069559454145087, 0.5874352049424361, 0.07175205814108904, -1.3067638210086143, -0.9131190798007273, -0.29747513460075614, -0.7273023584492911, -1.1908189587459963, 1.233742082169897, -0.07416300802402474, -0.2765499707453569, 0.8071337646790647, 1.3009344003358474, -0.24902276036921328, -1.9880738934471445, 0.3772344296727142, 0.36580156486698295, -0.7766706592854211, -0.6614544102943868, -0.2888057079145478, 1.503885055586296, -1.7843566854331017, -0.22410163251806114, -0.19264608884461812, -1.6715331816850583, 2.2290056378302596, 0.8853945928036914, 0.8461757822267916, 0.6204895900266925, 1.7108408340699677, 2.3639273654411306, -0.6265839584454227, -1.6168170651055478, -0.4194021542174652, -1.764468851031601, -1.7613443281699759, -0.3776598899061202, 1.9698927538386555, -0.31738573109230656, -0.24633977371034488, 2.304156574402063, -1.0906633977474176, -0.6211543365666576, -1.34550886400882, 0.7543469553764742, 0.025930111984873883, 0.14819676642234594, -1.2352139061507919, -3.564232174116493, -0.14486053817507358, -0.789232670255647, -0.8831441279469057, 1.732477040613695, 1.5246091419221712, 0.5708247660731438, 1.2044893159552288, 1.0931342590197926, 2.6106454269491413, 0.7257836968311867, 0.5626568438958309, -0.9445624224246516, 1.08772981150827, -0.1532206207885438, -1.889994194862235, -1.129877288690362, -1.8409754838377943, 0.6445577264240973, 0.01745708257452617, 0.26536148514253366, -1.3285309853260825, 1.4661732872770052, -1.021887357315206, 1.2543401243664405, -0.651365194171749, -1.2458361054620768, -1.3207881313670475, -1.8036907801764281, 0.3456034160574346, -1.3005676695555382, -0.7415630478596025, 0.9566950269714074, 0.30369338538393686, -0.4217541878782742, 1.8870310739755571, 3.2763844651446195, 3.1872993359384796, -0.3284106160073085, -1.199097131625268, -2.8421774356670046, 0.7670523840759846, -0.5409923276189607, 1.8400700941988148, -1.8177818791212574, 0.012571456320955604, 0.5569994878283734, -0.6368709657263482, -1.6230680859679507, -0.03372097404739975, 0.8351772548444768, -0.43191305083764847, -0.9257356851139706, 0.32503588912768083, -0.738742198975821, 0.4000625480075166, -1.8016129139610606, -1.779613992255208, -4.645053022686555, -0.1847022294081299, -1.3844108640254296, -1.4566039616499258, 0.7790686358411284, 3.5321898275708126, 0.7703643451830352, 0.11997547554572362, 3.3966372635860647, 1.1413598300934382, 0.09256804212211141, -1.31363296303445, 1.9942989158905942, 1.7329167505973229, -1.7698503720717706, 0.8787196700268877, -0.8209471222347685, -0.7019630045971907, 0.5515064526473266, -0.15393488386318435, 0.6336530663361352, 0.3153473776955478, -0.047470415146265404, -1.471566541376374, -4.693032979451486, -1.9352540625484163, -1.6748808187482356, -2.9309626899930916, -2.3778861583505186, -0.5564213290064225, 0.7554997153290817, -0.7818195636128695, -2.37908942876721, -0.501665504417239, -0.8241588513719342, 2.045080510106701, 1.2182809097397815, 3.1612322466112124, 1.450327975391717, 1.9156525976662038, 1.2740194050784401, 2.398151989991943, -1.1900871769622399, -0.717166639070743, -0.9607860807150468, 0.2976272621617587, 0.28992354700101436, -1.629724933252499, -0.36124872359682497, -1.244611181292713, 0.005935454004826509, -1.9886596703064248, -2.4272701174243148, -1.2594955544592716, -1.0921271107745654, -5.155008081890036, -2.625235186548834, -0.5024850467225489, 1.5709016304363448, 0.9642226570971308, -1.4127158077659356, -1.2699582922543196, -4.092341755448002, -1.5784187478128224, -1.0605211451517789, 0.3612833860746955, 3.911467029115804, 3.722548799236808, 4.733989173995108, 0.9805423427353238, 0.9539970849307591, 0.1471553439445988, -0.11690605157424262, -0.5241195046199331, -0.09713181384922719, 1.2067712065821408, 0.46333179159708004, 0.17667756413445856, -2.148140202886715, -1.1868534440370733, 0.7562604095004805, 1.3505927181754858, 0.8088909270084432, -0.1557148938340309, -1.5586517050537585, -2.4258370225238024, -2.7333212301579493, -3.308367195753392, -2.6943520576032154, -3.7064847750055043, -3.7726282415951014, -4.173323613924813, -2.5825289262919653, -0.0021006779369230595, 3.343227337122946, 4.435327472162413, 3.4946990853211495, 2.628631101105784, -0.8074239387259635, -0.7281372609882224, -0.35065961921962713, 0.027132848712487778, -0.9020606906494109, -1.5247029864713386, 0.806794746707368, -0.09268766761162368, -1.902588320203121, 0.9031210957801733, 0.42471410227597234, 0.7489167823227856, 0.06360301008134522, -0.6914059177931442, -0.6519709938214892, -0.07748351606482158, -0.8354412042609368, -3.496093286894175, -3.54199233714191, -4.311832184925534, -2.701034035752067, -3.5853960992609215, -1.9037128335246591, -1.394071127614487, 0.4337726493807945, 0.9099029907767242, 3.3757409532787865, 3.690161958830854, -1.6958575425755322, 0.13902977917416143, -0.4833455012018972, 0.07324555571320525, -0.2682399401645542, 0.5195339686074497, 0.5317952573160608, 0.5045894725569093, -0.4666096890859198, 2.5804791612271316, 2.3327091434901477, 1.3393721562809762, 1.10499421305935, 0.7776191086484122, -2.471754399375081, -0.07691005903040109, -3.2665478238054533, -3.3914733826896097, -3.2134127685572187, -5.3325383480485025, -4.977747274485409, -2.9004708437716284, -2.8728959303183257, 0.44361346353823294, -0.21795310824696318, 3.446474111140678, 3.065719488193906, 1.2708091864757625, 0.2693464144262568, -0.485475294753551, 0.7178027203879896, -0.7554349356998579, -0.7284934696822316, 0.7166188714370055, 0.6468657596045734, -0.24833701175420667, 4.3331058542443825, 2.5995147310915625, 3.5742929326903776, 2.3716489864809427, 2.112607516941755, -0.0784492194121283, -3.6677935723895976, -4.709218572808415, -4.810081486169963, -4.8525323906442, -6.198201654794238, -5.837139484979785, -3.8541602596255315, -2.048571973639679, -1.7666012486543918, -0.29467196792656586, 1.1717794795080743, 3.236150974345305, 1.812869028161256, 3.1219028890376963, 1.4847402988065912, -0.9002579030324839, 0.05531360582874756, 1.39531535654378, 0.4540115764545987, -0.5009996847722694, -1.4095672009661648, -2.04055499357176, 5.388430812285036, 2.408180280777794, 5.9599079225717695, 2.749057484243005, 1.8847901791043065, -0.8567795476832327, -2.3504646664670386, -3.7248359303061975, -2.9002096767855097, -4.045790463699393, -3.43918543384079, -4.922436361741785, -4.690826030350634, -2.008802483823334, 0.11831297751262781, -0.9501290378028436, 1.1055952346804594, 1.6758499899106871, 1.6388338854853455, 2.020594480961096, 1.9180221513790783, -2.67054764295156, 0.9113425158222153, 0.8414136678029136, 1.313586996675758, -0.7639381307851575, -0.21091197997353903, -0.23705998680962417, 1.5246835627926487, 1.7903513003645792, 7.5306438739051655, 4.991310002137109, -0.4922842065694061, -3.0105204835091084, -5.856478066219576, -3.4229245853626633, -3.1528897175118304, -3.8814803564895235, -3.1049215897557554, -3.594747104356292, -4.9329236498194575, -0.814450296610567, 0.19604666999090592, 2.2217001729981405, 1.103574332552856, 3.61358401938185, 0.3160248990055131, 1.5011847291330926, 0.33517116607800457, -1.3595617468816252, 0.5262939310116185, 1.416569547864314, -0.09688194272154643, -1.4246405888655649, 0.4261313243805828, 1.6464828986534594, -0.07929022582845362, 2.406605005669178, 6.821695250410467, 7.068048383336914, -1.2973932974548368, -2.8385853814495112, -4.264978950567531, -5.070197126062256, -3.536496710819339, -4.082683868601701, -3.651967649770112, -2.501576804884616, -0.8440888727403029, -2.3097519736019447, 1.1063701212140118, 1.5656875949065698, 1.6611564965634955, 0.33376298254890974, -0.4765083097720123, 0.025718629088895602, -0.293140106757484, 0.6882077302259286, 2.1929923612696656, -0.986727178401231, -1.1087517040359998, -1.081672365021674, 0.30297666828154135, -1.2784898671882032, -0.1683568489265592, 1.6278409201562338, 7.154058630280746, 6.1557367960598794, -0.5843734907121748, -3.406434975081874, -3.0950849470113684, -4.7490340311800106, -2.8044551586175364, -2.5045615627446582, -0.42897561619183955, -0.7863309249107029, -0.6042568680267255, -1.1134067535099488, -1.6389191557147684, 0.24661707927713544, 0.011251099835665615, 0.8121772588873636, 0.281063593198419, -1.0350952982359833, 1.0489178399915111, -1.5389139024805092, 0.9775763518459194, 2.498891743842875, 0.7323287184194818, 0.43149624914756246, -0.9174495170206185, -1.256323975583028, 0.6477732714978384, 0.6531565783989886, 3.5678349307745796, 3.7088138589861215, 1.35528917849959, -1.2526769081653686, -2.846111531608072, -0.9849537588620217, -0.7900851762369454, -0.2014504682719788, -1.2990592571664095, -2.957569626419306, 0.29328276890793686, -1.407130030637891, -0.5507126820418023, -1.1020889097059803, 1.88685674016088, 2.4959243241006046, 0.23156033786909289, -1.085269873449717, 0.08055392049071558, -1.11558834962055, -0.32357294711653367, 1.4107089772162138, 0.21446611082203865, -0.059808274869357005, -2.675667873475825, -1.2606705076106917, 0.9528733896752192, 0.7022946753216277, 0.9144119274429843, 2.96101416742131, 3.6156156647096154, 2.043251220773814, 0.6777131412901874, 0.8165378955568422, 2.288245032087875, -0.39105856557007923, -1.7397651345538476, -3.4109597757595065, -2.8973941104853895, -2.7714688183055847, -5.931454563081488, -1.9538806538046385, -0.2184788943839173, -1.708284089508792, 0.1387115223558414, -1.09757473961957, -0.22553777945595893, -0.5098419618003628, -1.4583534331298564, -0.6955984777451054, 0.9308399064291623, -1.939378773082046, -0.6973806767380536, -0.7078083861344096, 1.0204825174194632, 1.461751048962486, 2.627202001344758, 2.6188666302386436, -1.1885046414402993, 1.8853525159022049, -0.5814063570284682, -2.0024697922455195, -2.863469649434427, -2.969415803358594, -0.5673156971245998, -2.4942035946922423, -1.1226144059174012, -0.5200855843136626, -1.4140729369271317, -0.3308157454914227, -1.5957134741964891, -0.6624086494463395, -1.3125635731616088, 0.05896987460271982, -0.35281976651064356, -1.0945241093620142, 1.305890330415365, -1.122295960166109, 0.38528724655820396, -0.6599118963650761, 0.0653619313723324, -0.22394038004021363, 1.6492289737318155, 2.302099285019524, 4.253024051757525, 1.3912179061718772, 2.0057264683269103, 1.244453522152273, -0.731849825838003, 0.09961000430096087, -0.837970572513197, 1.567036855484699, -0.8389084575583721, 1.2098613417233004, 1.6527776561664633, -0.0121913779486391, 1.4233339452502212, -0.0055673760311916185, -0.3725569980114698, 1.0874447456858458, -0.6669009904993366, -0.2261300610535087, 0.6011012707524181, 1.745925289620247, -0.05915418631734854, 0.9115862183466781, -0.4311694211006071, 0.3909576869776907, -1.102097291104964, -0.11737538764327321, -1.154578871874814, 0.18610741626756477, 2.224136376735787, 2.822168953152638, 0.6025047849084852, 2.395182093575137, 0.15289797218648893, -0.9548052653614408, 0.180008763887441, -0.5783888108035865, 2.041627796920717, 0.6274402304822159, 0.7785508241140414, -0.34072245631466747, -1.0065667732228325, 0.3322539278802134, -1.6704034704797195, -2.4220915936609195, -2.249613961782469, -0.020956875379513948, -0.15181684057562433, 3.698791376326384, -0.5815192984732804, 0.4992102161859053, -1.945613934280519, -1.3900031040458098, -0.534779177712533, 1.0957291898694719, 0.6065816811859345, -0.0668149039439166, -1.0829332400956673, 1.3835722177330112, 0.19878637820000464, 0.7044935793226211, -0.528821834130345, 0.6142882462556828, 1.1750855980856951, 0.5326597557017946, -0.15419543428970478, -0.9232157047259586, -0.2300286612398295, -0.6944357326270308, -1.693122113726507, -1.1156525494990748, -2.3373671933875486, -0.30754037824905545, 0.894382084636433, 0.15210044595746933, -1.3572045226557414, 1.400112346204819, -0.7140664268991703, -0.7534548727720016, 0.2105399290717936, -0.15132417585191943, -0.3281599437824499, -1.3431639789620196, 0.7579940132228049, 0.8743370769499114, -0.7555630142211567, -1.6092935081308959, -0.653663286084232, 0.28113635858607633, -1.0283980680666658, -0.018265573788040616, -2.1823820701556613, -1.0320280502163834, -0.9120848437158975, -1.5092034378930397, -1.7906580672748733, -0.4726425490285423, 0.06141135791576901, -0.3999658435882764, -2.5385534581804383, -0.2058071073982944, 0.5607733758175699, -1.7215842805700334, -0.127590638467218, -0.3333785349030401, -0.3958230507082897, -1.221118877513467, 0.5674343244322091, -0.6492206093928361, -1.0720082127933075, 0.7490722863015342, 0.35496680314869494, 0.2771690228876988, 0.9591588552137854, -0.3507728532686701, -0.14090486496405547, -0.61458141683007, -0.4701050731457569, -1.3168288589082222, 1.614817812943051, -0.12990663058962557, -0.4148964644911137, -0.15387130859860404, 0.15445177911990687, -0.8244020577215756, -0.9665903251512852, 0.6252961731905806, -0.48881324061377657, 2.3459955956582803, -0.9660757667360693, 0.5352590922794592, 1.8347311873820535, -0.2897092297253262, -1.0118423270351116, -0.12728950379191414, 1.0245193627598037, 0.8982723541037986, 1.03703740983916, 0.38521263856959165, 0.8199254633315524, -0.38115849172097244, -0.45984983904593035, 0.2675413605818468, -0.3950972757292338, 0.48072558024325907, 0.3690138954301553, 0.31642126054102315, -0.5347246584680517, -0.4478130891248227, 1.0148944835309202, 1.1390815006484725, 0.25079251593912694, -2.177503810123115, -0.08454373012878187, 0.9499131368587697, 1.256183488343432, 0.274194746883532, 2.0623953764739507, -0.25348935211070756, 0.9511347037685366, 0.8512805951236097, -0.6847546274776221], [0.01739659592855347, -0.19551222060424908, 0.5660729255061975, 1.5382510639142184, 0.7916736713354295, 0.2122800938643285, 0.6221773254563981, 0.3956931211332534, -0.06716358516815822, 1.0982485099484505, 0.4774140397259673, 0.5877722622439574, 0.49127713329263456, 0.298512066210823, 0.006679251795977546, -1.2401348571137423, -1.2510564703920104, 0.4449588907336017, -0.2297268192201092, 0.16626188807817238, 0.8843555738428345, -1.1083651216667332, -0.11905762444519641, -0.21339928544365477, 0.4451292810246173, -1.1487485513556854, -0.9462189181157714, -0.3993234585922543, 0.53613133311835, -0.28661844864486297, -0.04527449830845837, -1.9523738510185498, 0.031701943637802536, -0.310860576346511, 0.03883347664915288, -0.6409698686567185, -0.9165052104859833, -1.1521298963415945, -0.01115741440813103, 1.9554758800659668, -0.31422829079807124, -0.32103375913917886, -0.7534420253343768, -1.2935419369701344, -0.8546067340667373, 1.119440015418153, 0.5547933728098388, -1.2671291716612805, -0.6249959683011206, -0.34650337027486117, 0.0594885891168409, -1.012620525732791, -1.064754436972292, 0.009376413968649955, -1.0054626334943895, 0.5343174634089352, -2.1883533987854906, 0.0008165671604615758, 0.21981999037468294, -1.963128533655292, -0.05262679723654534, -0.12877659805727715, 0.03668476897167252, 0.0978940409362909, 1.2085842182564173, 2.7169502809421124, 0.09794368189997928, 0.3233641578891358, 0.989764951524345, 1.7881388465037515, -0.5563518137696041, -0.37199796445866395, 0.34277040773782047, 0.020670165632061775, 0.4581903404375889, -1.7700249899613558, 0.7673377801055533, 1.1739357350216273, 0.07780047218557401, -1.1657074380262815, 0.23343894314194566, -1.5358143058946485, 0.10291647535157869, 1.3207704243216123, -1.2970447715456679, 0.424018475611823, 0.4958220289540249, -0.9777733274683743, -2.1405096056105957, 0.008829041529962512, 1.1172342239228858, -0.07966318119659455, 0.8672411465577741, -0.34935855677649247, 0.572555514844844, 0.7118074647981265, 0.7358306724219873, 2.2338750703161403, 3.324852404862699, 3.390155090906683, 1.293782962056784, 2.3592439210742318, 2.138335702404006, 5.438466669500683, 3.509206866646777, 1.9000301402849307, 3.159250902611354, 1.5889064024519224, 0.5908803194736333, -1.764106047219996, -1.2194581365292214, -0.25529802067648627, 0.2971848779833678, 1.0614961727484709, -0.4707413821085914, -1.779228288036387, 0.3734918359950186, 0.2879928685161536, 0.5125785306361064, -0.12793263763115714, 0.974182298118694, 0.5970017920726103, 1.0219562963081772, -1.6740502208564036, -1.9100340093804176, -1.2079433752977708,